{"learner":{"attributes":{},"feature_names":[],"feature_types":[],"gradient_booster":{"model":{"gbtree_model_param":{"num_parallel_tree":"1","num_trees":"100"},"iteration_indptr":[0,1,2,3,4,5,6,7,8,9,10,11,12,13,14,15,16,17,18,19,20,21,22,23,24,25,26,27,28,29,30,31,32,33,34,35,36,37,38,39,40,41,42,43,44,45,46,47,48,49,50,51,52,53,54,55,56,57,58,59,60,61,62,63,64,65,66,67,68,69,70,71,72,73,74,75,76,77,78,79,80,81,82,83,84,85,86,87,88,89,90,91,92,93,94,95,96,97,98,99,100],"tree_info":[0,0,0,0,0,0,0,0,0,0,0,0,0,0,0,0,0,0,0,0,0,0,0,0,0,0,0,0,0,0,0,0,0,0,0,0,0,0,0,0,0,0,0,0,0,0,0,0,0,0,0,0,0,0,0,0,0,0,0,0,0,0,0,0,0,0,0,0,0,0,0,0,0,0,0,0,0,0,0,0,0,0,0,0,0,0,0,0,0,0,0,0,0,0,0,0,0,0,0,0],"trees":[{"base_weights":[-9.8209625E-8,-2.2120318E0,6.126892E-1,-2.2219214E0,4.8821437E-1,1.5304215E0,-6.677427E-1,3.9249197E-1,-6.677672E-1,1.5856974E0,-9.1567254E-1,-4.2345297E-1,4.2259082E-1,1.7135535E0,1.1258707E0,5.352289E-1,-1.9122223E0,-3.7235934E-1,1.7274752E0,3.143987E-1,1.7915553E0,-2.1838708E0,4.9780235E-1,4.7040167E-1,-6.1036587E-1,5.2979785E-1,2.927316E-1,5.0945354E-1,-6.505984E-1,5.441033E-1,1.3323034E-1,-3.5392204E-1,-6.632208E-1],"categories":[],"categories_nodes":[],"categories_segments":[],"categories_sizes":[],"default_left":[0,0,0,0,0,0,0,0,0,0,0,0,0,0,0,0,0,0,0,0,0,0,0,0,0,0,0,0,0,0,0,0,0],"id":0,"left_children":[1,3,5,7,-1,9,-1,11,-1,13,15,-1,-1,17,19,-1,21,23,25,27,29,31,-1,-1,-1,-1,-1,-1,-1,-1,-1,-1,-1],"loss_changes":[2.2088234E4,1.378418E2,3.3250195E4,3.7466797E1,0E0,1.3055723E3,0E0,1.3345725E1,0E0,5.526113E2,5.7856226E2,0E0,0E0,2.1490625E2,1.1095251E3,0E0,1.5558032E2,1.6361545E2,2.1049414E2,3.1899333E3,3.2839844E1,1.3300171E0,0E0,0E0,0E0,0E0,0E0,0E0,0E0,0E0,0E0,0E0,0E0],"parents":[2147483647,0,0,1,1,2,2,3,3,5,5,7,7,9,9,10,10,13,13,14,14,16,16,17,17,18,18,19,19,20,20,21,21],"right_children":[2,4,6,8,-1,10,-1,12,-1,14,16,-1,-1,18,20,-1,22,24,26,28,30,32,-1,-1,-1,-1,-1,-1,-1,-1,-1,-1,-1],"split_conditions":[-1.1719481E0,2.260203E-1,1.0432655E0,-1.1652824E0,4.8821437E-1,1.5280687E0,-6.677427E-1,-1.7190708E0,-6.677672E-1,3.8553303E-1,-5.806245E-2,-4.2345297E-1,4.2259082E-1,-4.6095617E-2,1.05165936E-1,5.352289E-1,-8.619357E-2,-2.151847E-1,1.8826205E0,-7.637206E-1,1.0299698E0,-4.7799397E-1,4.9780235E-1,4.7040167E-1,-6.1036587E-1,5.2979785E-1,2.927316E-1,5.0945354E-1,-6.505984E-1,5.441033E-1,1.3323034E-1,-3.5392204E-1,-6.632208E-1],"split_indices":[7,32,0,0,0,29,0,0,0,21,11,0,0,4,0,0,5,33,24,0,0,33,0,0,0,0,0,0,0,0,0,0,0],"split_type":[0,0,0,0,0,0,0,0,0,0,0,0,0,0,0,0,0,0,0,0,0,0,0,0,0,0,0,0,0,0,0,0,0],"sum_hessian":[1.62958125E4,3.5340376E3,1.2761775E4,3.5253782E3,8.659431E0,9.644133E3,3.1176426E3,5.1956587E0,3.5201826E3,9.431357E3,2.127746E2,1.7318863E0,3.4637725E0,7.377341E3,2.054017E3,5.715225E1,1.5562234E2,4.8740227E1,7.3286006E3,9.2631177E2,1.1277053E3,1.4498363E2,1.063873E1,2.251452E1,2.6225706E1,6.9701E3,3.5850046E2,5.950266E2,3.312851E2,1.1091494E3,1.8555923E1,4.9482465E0,1.4003537E2],"tree_param":{"num_deleted":"0","num_feature":"40","num_nodes":"33","size_leaf_vector":"1"}},{"base_weights":[1.4142913E-2,-1.6184748E0,4.910437E-1,-1.6256568E0,3.9884523E-1,1.2269124E0,-4.8854867E-1,2.9755735E-1,-4.885627E-1,1.2721267E0,-6.7652273E-1,-3.4272516E-1,3.5011172E-1,1.4355842E0,1.0102985E0,4.3461615E-1,-1.4029884E0,3.716103E-1,1.466015E0,1.2724348E0,-3.750641E-1,-1.5998604E0,4.0605938E-1,-2.9650712E-1,4.274924E-1,4.4205412E-1,1.8608902E-1,-6.014296E-2,3.9857212E-1,3.7244448E-1,-2.9017454E-1,-4.8591536E-1,-1.9819511E-1],"categories":[],"categories_nodes":[],"categories_segments":[],"categories_sizes":[],"default_left":[0,0,0,0,0,0,0,0,0,0,0,0,0,0,0,0,0,0,0,0,0,0,0,0,0,0,0,0,0,0,0,0,0],"id":1,"left_children":[1,3,5,7,-1,9,-1,11,-1,13,15,-1,-1,17,19,-1,21,23,25,27,29,31,-1,-1,-1,-1,-1,-1,-1,-1,-1,-1,-1],"loss_changes":[1.1662264E4,7.385547E1,1.808258E4,1.9233398E1,0E0,7.4146387E2,0E0,8.72863E0,0E0,3.5831348E2,3.11315E2,0E0,0E0,1.6693945E2,1.1750056E3,0E0,8.345889E1,2.0937769E2,3.097754E1,2.2516504E2,4.9456885E2,1.5460205E0,0E0,0E0,0E0,0E0,0E0,0E0,0E0,0E0,0E0,0E0,0E0],"parents":[2147483647,0,0,1,1,2,2,3,3,5,5,7,7,9,9,10,10,13,13,14,14,16,16,17,17,18,18,19,19,20,20,21,21],"right_children":[2,4,6,8,-1,10,-1,12,-1,14,16,-1,-1,18,20,-1,22,24,26,28,30,32,-1,-1,-1,-1,-1,-1,-1,-1,-1,-1,-1],"split_conditions":[-1.1719481E0,2.260203E-1,1.0432655E0,-1.1652824E0,3.9884523E-1,1.5280687E0,-4.8854867E-1,-1.7190708E0,-4.885627E-1,-4.3508828E-2,-5.806245E-2,-3.4272516E-1,3.5011172E-1,-4.594414E-2,-3.9039087E-1,4.3461615E-1,-8.619357E-2,1.05165936E-1,-1.8481535E-1,-4.3450568E-2,-7.5034076E-1,-8.676133E-2,4.0605938E-1,-2.9650712E-1,4.274924E-1,4.4205412E-1,1.8608902E-1,-6.014296E-2,3.9857212E-1,3.7244448E-1,-2.9017454E-1,-4.8591536E-1,-1.9819511E-1],"split_indices":[7,32,0,0,0,29,0,0,0,4,11,0,0,4,33,0,5,0,24,4,0,5,0,0,0,0,0,0,0,0,0,0,0],"split_type":[0,0,0,0,0,0,0,0,0,0,0,0,0,0,0,0,0,0,0,0,0,0,0,0,0,0,0,0,0,0,0,0,0],"sum_hessian":[1.4976546E4,3.3852202E3,1.1591326E4,3.3774407E3,7.77972E0,8.604432E3,2.9868945E3,4.906708E0,3.372534E3,8.405108E3,1.9932332E2,1.7291329E0,3.1775746E0,5.171865E3,3.233243E3,5.052385E1,1.4879947E2,1.441751E2,5.0276904E3,2.7188647E3,5.1437836E2,1.3927219E2,9.52728E0,6.2956085E1,8.121901E1,4.982767E3,4.4923115E1,9.972824E1,2.6191365E3,1.3761641E2,3.7676193E2,1.3567903E2,3.593164E0],"tree_param":{"num_deleted":"0","num_feature":"40","num_nodes":"33","size_leaf_vector":"1"}},{"base_weights":[1.572448E-2,1.272609E0,-4.5110416E-1,-1.6847234E0,3.9538053E-1,-1.4569862E0,1.1287617E-1,-1.0917348E0,-3.175969E0,-1.3944196E0,-1.9068651E0,1.315916E0,-4.1562018E-1,1.0279436E0,-1.5513774E0,-1.8319023E-1,-1.0084591E0,-4.1556847E-1,-1.540396E0,-2.341645E0,-1.5920304E0,1.3252413E0,-3.8270333E-1,1.10159054E-1,3.3366767E-1,-1.770524E0,2.0537539E-1,-1.361948E0,-1.7152063E0,-2.4139533E0,3.0003813E-1,-1.6535317E0,-5.288865E-1,1.3338741E0,6.150648E-1,-4.089205E-1,-9.1290194E-1,-4.1450968E-1,-1.386184E-2,-5.862572E-1,-4.582418E-1,-4.4164687E-1,-7.710585E-1,-5.4222965E-1,-4.4092864E-1,2.2605556E-1,-4.0366927E-1,3.9912167E-1,5.0493354E-1,2.9673356E-1,-6.680765E-1],"categories":[],"categories_nodes":[],"categories_segments":[],"categories_sizes":[],"default_left":[0,0,0,0,0,0,0,0,0,0,0,0,0,0,0,0,0,0,0,0,0,0,0,0,0,0,0,0,0,0,0,0,0,0,0,0,0,0,0,0,0,0,0,0,0,0,0,0,0,0,0],"id":2,"left_children":[1,3,5,7,-1,9,11,13,15,17,19,21,-1,23,25,-1,-1,-1,27,29,31,33,-1,-1,-1,35,-1,37,39,41,-1,43,45,47,49,-1,-1,-1,-1,-1,-1,-1,-1,-1,-1,-1,-1,-1,-1,-1,-1],"loss_changes":[7.435409E3,4.6225732E2,5.2421343E3,4.2733063E1,0E0,9.078174E1,1.0675379E4,3.9499615E1,4.77388E0,1.78125E0,5.138037E1,8.1078125E1,0E0,1.1179447E-2,1.707373E1,0E0,0E0,0E0,2.7775269E0,4.275891E1,1.4597351E1,1.925E1,0E0,0E0,0E0,1.12821045E1,0E0,2.1703644E0,5.572052E-1,2.0307251E1,0E0,3.6566162E0,1.6106003E1,1.6777344E0,4.5969383E1,0E0,0E0,0E0,0E0,0E0,0E0,0E0,0E0,0E0,0E0,0E0,0E0,0E0,0E0,0E0,0E0],"parents":[2147483647,0,0,1,1,2,2,3,3,5,5,6,6,7,7,8,8,9,9,10,10,11,11,13,13,14,14,18,18,19,19,20,20,21,21,25,25,27,27,28,28,29,29,31,31,32,32,33,33,34,34],"right_children":[2,4,6,8,-1,10,12,14,16,18,20,22,-1,24,26,-1,-1,-1,28,30,32,34,-1,-1,-1,36,-1,38,40,42,-1,44,46,48,50,-1,-1,-1,-1,-1,-1,-1,-1,-1,-1,-1,-1,-1,-1,-1,-1],"split_conditions":[-7.5034076E-1,-1.7190708E0,1.05165936E-1,5.4471964E-1,3.9538053E-1,7.1944004E-1,1.0432655E0,-6.804737E-1,-8.810712E-2,-8.494905E-2,3.8553303E-1,8.360524E-1,-4.1562018E-1,-2.1372724E-1,-2.6240882E-1,-1.8319023E-1,-1.0084591E0,-4.1556847E-1,-8.08724E-2,5.6968607E-2,9.128126E-2,1.0299698E0,-3.8270333E-1,1.10159054E-1,3.3366767E-1,6.9416896E-2,2.0537539E-1,-2.6230732E-1,-3.9039087E-1,-4.6037357E-2,3.0003813E-1,-3.9039087E-1,-3.9039087E-1,1.6037391E0,1.6682488E0,-4.089205E-1,-9.1290194E-1,-4.1450968E-1,-1.386184E-2,-5.862572E-1,-4.582418E-1,-4.4164687E-1,-7.710585E-1,-5.4222965E-1,-4.4092864E-1,2.2605556E-1,-4.0366927E-1,3.9912167E-1,5.0493354E-1,2.9673356E-1,-6.680765E-1],"split_indices":[0,0,0,22,0,7,0,28,1,23,21,33,0,1,10,0,0,0,5,32,0,0,0,0,0,24,0,10,33,4,0,33,33,38,26,0,0,0,0,0,0,0,0,0,0,0,0,0,0,0,0],"split_type":[0,0,0,0,0,0,0,0,0,0,0,0,0,0,0,0,0,0,0,0,0,0,0,0,0,0,0,0,0,0,0,0,0,0,0,0,0,0,0,0,0,0,0,0,0,0,0,0,0,0,0],"sum_hessian":[1.2670221E4,3.4309749E3,9.239246E3,5.1245636E1,3.3797292E3,3.3186733E3,5.9205728E3,3.7904957E1,1.334068E1,2.9170813E3,4.0159183E2,3.2838948E3,2.6366782E3,6.534446E0,3.137051E1,1.1893246E0,1.2151356E1,2.7541565E3,1.6292494E2,1.6596298E2,2.3562886E2,3.2726074E3,1.1287159E1,1.3452026E0,5.1892433E0,2.8759912E1,2.6105976E0,8.497383E1,7.795112E1,1.6271974E2,3.2432454E0,2.2221854E2,1.3410324E1,3.232436E3,4.017141E1,2.335326E1,5.406652E0,8.366775E1,1.3060814E0,3.0154795E1,4.7796326E1,2.463666E1,1.3808308E2,1.16129234E2,1.060893E2,5.2475643E0,8.16276E0,3.2054092E3,2.7026814E1,3.6075333E1,4.0960774E0],"tree_param":{"num_deleted":"0","num_feature":"40","num_nodes":"51","size_leaf_vector":"1"}},{"base_weights":[1.7765548E-2,1.169186E0,-4.040439E-1,-1.1752772E0,3.642643E-1,-1.2894088E0,1.04265444E-1,3.8029048E-1,-1.4365104E0,-1.2919326E0,2.696313E-1,1.2060387E0,-3.7622815E-1,-3.3620882E-1,9.230729E-1,-1.669573E0,-9.923927E-1,-1.2592202E0,-1.4995407E0,1.214823E0,-3.4259468E-1,3.0695915E-1,9.959376E-2,-8.834488E-1,-5.243204E-1,-3.5458875E-1,2.2322968E-1,-3.780218E-1,-6.3739854E-1,-1.6860919E0,-1.3421787E0,3.6739996E-1,4.937414E-1,-3.578771E-1,-4.563965E-2,-2.944868E-1,9.040594E-2,-5.2901685E-1,-4.1390783E-1,-4.1916677E-1,-1.3169046E-1,2.4647234E-1,-4.7194982E-1],"categories":[],"categories_nodes":[],"categories_segments":[],"categories_sizes":[],"default_left":[0,0,0,0,0,0,0,0,0,0,0,0,0,0,0,0,0,0,0,0,0,0,0,0,0,0,0,0,0,0,0,0,0,0,0,0,0,0,0,0,0,0,0],"id":3,"left_children":[1,3,5,7,-1,9,11,13,15,17,-1,19,-1,-1,21,23,25,27,29,31,-1,-1,-1,33,-1,-1,-1,-1,35,37,39,-1,41,-1,-1,-1,-1,-1,-1,-1,-1,-1,-1],"loss_changes":[4.952198E3,2.9002954E2,3.3586064E3,2.1687569E1,0E0,1.6192871E1,7.098009E3,7.773152E0,2.9754791E0,1.6578613E1,0E0,5.539868E1,0E0,0E0,5.2283764E-2,1.6938782E-1,6.761488E0,4.4482422E-1,8.44873E0,1.7916504E1,0E0,0E0,0E0,8.469384E-1,0E0,0E0,0E0,0E0,1.991591E0,1.428894E0,9.470764E0,0E0,2.623933E1,0E0,0E0,0E0,0E0,0E0,0E0,0E0,0E0,0E0,0E0],"parents":[2147483647,0,0,1,1,2,2,3,3,5,5,6,6,7,7,8,8,9,9,11,11,14,14,15,15,16,16,17,17,18,18,19,19,23,23,28,28,29,29,30,30,32,32],"right_children":[2,4,6,8,-1,10,12,14,16,18,-1,20,-1,-1,22,24,26,28,30,32,-1,-1,-1,34,-1,-1,-1,-1,36,38,40,-1,42,-1,-1,-1,-1,-1,-1,-1,-1,-1,-1],"split_conditions":[-7.5034076E-1,-1.7190708E0,1.05165936E-1,-6.804737E-1,3.642643E-1,2.260203E-1,1.0432655E0,-5.5440056E-1,-2.151847E-1,7.1944004E-1,2.696313E-1,8.360524E-1,-3.7622815E-1,-3.3620882E-1,-3.73215E-2,-4.558292E-2,-1.4316389E-1,9.128126E-2,3.8553303E-1,1.0299698E0,-3.4259468E-1,3.0695915E-1,9.959376E-2,-2.1372809E-1,-5.243204E-1,-3.5458875E-1,2.2322968E-1,-3.780218E-1,-3.5885742E-1,9.128126E-2,9.128126E-2,3.6739996E-1,1.6682488E0,-3.578771E-1,-4.563965E-2,-2.944868E-1,9.040594E-2,-5.2901685E-1,-4.1390783E-1,-4.1916677E-1,-1.3169046E-1,2.4647234E-1,-4.7194982E-1],"split_indices":[0,0,0,28,0,32,0,6,33,7,0,33,0,0,4,4,3,0,21,0,0,0,0,1,0,0,0,0,9,0,0,0,26,0,0,0,0,0,0,0,0,0,0],"split_type":[0,0,0,0,0,0,0,0,0,0,0,0,0,0,0,0,0,0,0,0,0,0,0,0,0,0,0,0,0,0,0,0,0,0,0,0,0,0,0,0,0,0,0],"sum_hessian":[1.0194449E4,2.7328286E3,7.461621E3,5.102522E1,2.6818035E3,2.7208875E3,4.7407334E3,7.2712564E0,4.3753963E1,2.7181619E3,2.7255116E0,2.6176523E3,2.1230813E3,1.6483254E0,5.6229305E0,2.6885683E1,1.6868279E1,2.3542703E3,3.6389163E2,2.6083767E3,9.275685E0,4.183305E0,1.439626E0,3.5440142E0,2.334167E1,1.5495952E1,1.3723271E0,2.3500225E3,4.247789E0,1.6205827E2,2.0183337E2,2.57256E3,3.581646E1,2.0467014E0,1.4973129E0,3.0746863E0,1.1731026E0,1.2561366E2,3.644462E1,1.8972418E2,1.2109183E1,3.1433315E1,4.3831415E0],"tree_param":{"num_deleted":"0","num_feature":"40","num_nodes":"43","size_leaf_vector":"1"}},{"base_weights":[1.8081686E-2,1.1031566E0,-3.76332E-1,-9.458633E-1,3.4462604E-1,-1.1925797E0,9.8552674E-2,3.2074553E-1,-1.156526E0,-1.1950853E0,2.4483882E-1,1.1360067E0,-3.522362E-1,8.3388805E-1,-2.8312522E-1,-3.876647E-1,-6.053665E-1,-1.1849589E0,-4.2091253E-1,3.468294E-1,1.016069E-1,5.6036815E-2,2.8329152E-1,2.7824232E-1,-1.1572642E0,-1.1911916E0,-7.2668964E-1,-1.0336813E0,8.074406E-1,-4.037541E-1,-1.0508333E-1,-3.5216337E-1,-3.8634658E-1,8.534574E-2,-3.6599445E-1,-3.7129334E-1,2.1265727E-1,-5.257688E-1,3.1882113E-1],"categories":[],"categories_nodes":[],"categories_segments":[],"categories_sizes":[],"default_left":[0,0,0,0,0,0,0,0,0,0,0,0,0,0,0,0,0,0,0,0,0,0,0,0,0,0,0,0,0,0,0,0,0,0,0,0,0,0,0],"id":4,"left_children":[1,3,5,7,-1,9,11,13,15,17,-1,19,-1,21,-1,-1,23,25,-1,-1,27,-1,-1,-1,29,31,33,35,37,-1,-1,-1,-1,-1,-1,-1,-1,-1,-1],"loss_changes":[3.4166086E3,1.99927E2,2.2696914E3,1.2879147E1,0E0,1.1814697E1,4.889878E3,5.6325455E0,2.239849E0,2.86792E0,0E0,4.228369E1,0E0,2.410965E-1,0E0,0E0,9.418392E0,5.012207E0,0E0,0E0,3.286295E1,0E0,0E0,0E0,7.0007706E-1,1.8823242E0,1.5399363E1,6.479208E0,1.8337187E1,0E0,0E0,0E0,0E0,0E0,0E0,0E0,0E0,0E0,0E0],"parents":[2147483647,0,0,1,1,2,2,3,3,5,5,6,6,7,7,8,8,9,9,11,11,13,13,16,16,17,17,20,20,24,24,25,25,26,26,27,27,28,28],"right_children":[2,4,6,8,-1,10,12,14,16,18,-1,20,-1,22,-1,-1,24,26,-1,-1,28,-1,-1,-1,30,32,34,36,38,-1,-1,-1,-1,-1,-1,-1,-1,-1,-1],"split_conditions":[-7.5034076E-1,-1.7190708E0,1.05165936E-1,-6.804737E-1,3.4462604E-1,2.260203E-1,1.0432655E0,6.4495146E-1,-2.6230732E-1,-1.05353825E-1,2.4483882E-1,1.0299698E0,-3.522362E-1,-2.1372724E-1,-2.8312522E-1,-3.876647E-1,4.9475712E-1,9.128126E-2,-4.2091253E-1,3.468294E-1,-5.543539E-1,5.6036815E-2,2.8329152E-1,2.7824232E-1,-3.4911492E-1,-2.3831055E-1,-3.9039087E-1,-5.7248563E-2,-4.594414E-2,-4.037541E-1,-1.0508333E-1,-3.5216337E-1,-3.8634658E-1,8.534574E-2,-3.6599445E-1,-3.7129334E-1,2.1265727E-1,-5.257688E-1,3.1882113E-1],"split_indices":[0,0,0,28,0,32,0,21,10,9,0,0,0,1,0,0,22,0,0,0,6,0,0,0,31,21,33,2,4,0,0,0,0,0,0,0,0,0,0],"split_type":[0,0,0,0,0,0,0,0,0,0,0,0,0,0,0,0,0,0,0,0,0,0,0,0,0,0,0,0,0,0,0,0,0,0,0,0,0,0,0],"sum_hessian":[7.9813506E3,2.1272522E3,5.854098E3,4.5877518E1,2.0813748E3,2.1526096E3,3.7014888E3,6.467732E0,3.9409786E1,2.1503323E3,2.277195E0,2.039248E3,1.6622407E3,4.8429585E0,1.6247735E0,3.0545311E1,8.864473E0,2.0568716E3,9.346069E1,2.0002788E3,3.896921E1,1.0982625E0,3.7446957E0,2.166557E0,6.697916E0,2.027695E3,2.9176737E1,1.4761616E1,2.4207594E1,4.887924E0,1.8099915E0,1.7307377E3,2.969573E2,9.705397E0,1.947134E1,1.3474213E1,1.2874026E0,1.6633573E0,2.2544237E1],"tree_param":{"num_deleted":"0","num_feature":"40","num_nodes":"39","size_leaf_vector":"1"}},{"base_weights":[1.8050246E-2,1.0587512E0,-3.5832927E-1,-8.1003624E-1,3.3155686E-1,-1.1301891E0,9.4741136E-2,2.7253664E-1,-9.970062E-1,-1.1327754E0,2.2354762E-1,1.0888636E0,-3.366139E-1,7.554009E-1,-2.4261306E-1,-1.1344827E0,-4.891666E-1,-1.1401284E0,-8.065802E-1,3.3314067E-1,8.4153146E-2,4.8208207E-2,2.611928E-1,-3.9428458E-1,-3.5947135E-1,2.4853033E-1,-9.4380695E-1,-3.3655533E-1,-1.2184783E0,3.6543286E-1,-1.088484E0,-7.496574E-1,8.054619E-1,7.853655E-2,-2.466717E-1,-3.4908125E-1,-9.2753366E-2,-3.6650205E-1,-5.1596213E-2,3.636208E-1,-2.1157527E-1,-3.380125E-1,-1.5105459E-2,-2.7439275E-1,2.0279536E-1,-4.270333E-1,3.3179998E-1],"categories":[],"categories_nodes":[],"categories_segments":[],"categories_sizes":[],"default_left":[0,0,0,0,0,0,0,0,0,0,0,0,0,0,0,0,0,0,0,0,0,0,0,0,0,0,0,0,0,0,0,0,0,0,0,0,0,0,0,0,0,0,0,0,0,0,0],"id":5,"left_children":[1,3,5,7,-1,9,11,13,15,17,-1,19,-1,21,-1,23,25,27,29,-1,31,-1,-1,33,-1,-1,35,-1,37,39,41,43,45,-1,-1,-1,-1,-1,-1,-1,-1,-1,-1,-1,-1,-1,-1],"loss_changes":[2.408352E3,1.4261597E2,1.5791975E3,8.403118E0,0E0,8.9453125E0,3.4441294E3,4.1098647E0,1.8517036E0,3.0820312E0,0E0,3.3920532E1,0E0,2.1304035E-1,0E0,7.719765E-1,6.2341366E0,9.658203E-1,1.3678186E1,0E0,2.1093742E1,0E0,0E0,1.2208561E0,0E0,0E0,6.493473E-1,0E0,7.814636E-1,8.598222E0,1.239006E0,4.456869E0,1.4133448E1,0E0,0E0,0E0,0E0,0E0,0E0,0E0,0E0,0E0,0E0,0E0,0E0,0E0,0E0],"parents":[2147483647,0,0,1,1,2,2,3,3,5,5,6,6,7,7,8,8,9,9,11,11,13,13,15,15,16,16,17,17,18,18,20,20,23,23,26,26,28,28,29,29,30,30,31,31,32,32],"right_children":[2,4,6,8,-1,10,12,14,16,18,-1,20,-1,22,-1,24,26,28,30,-1,32,-1,-1,34,-1,-1,36,-1,38,40,42,44,46,-1,-1,-1,-1,-1,-1,-1,-1,-1,-1,-1,-1,-1,-1],"split_conditions":[-7.5034076E-1,-1.7190708E0,1.05165936E-1,-6.804737E-1,3.3155686E-1,2.260203E-1,1.0432655E0,5.4471964E-1,-2.6230732E-1,9.128126E-2,2.2354762E-1,1.0299698E0,-3.366139E-1,-2.1372724E-1,-2.4261306E-1,-6.441902E-1,4.9475712E-1,-1.1719481E0,-4.7799397E-1,3.3314067E-1,-5.543289E-1,4.8208207E-2,2.611928E-1,-2.1372765E-1,-3.5947135E-1,2.4853033E-1,-3.5884884E-1,-3.3655533E-1,5.584386E-2,-1.01612695E-1,1.6682488E0,-5.7248563E-2,-4.594414E-2,7.853655E-2,-2.466717E-1,-3.4908125E-1,-9.2753366E-2,-3.6650205E-1,-5.1596213E-2,3.636208E-1,-2.1157527E-1,-3.380125E-1,-1.5105459E-2,-2.7439275E-1,2.0279536E-1,-4.270333E-1,3.3179998E-1],"split_indices":[0,0,0,28,0,32,0,22,10,0,0,0,0,1,0,38,22,7,33,0,6,0,0,1,0,0,9,0,3,13,26,2,4,0,0,0,0,0,0,0,0,0,0,0,0,0,0],"split_type":[0,0,0,0,0,0,0,0,0,0,0,0,0,0,0,0,0,0,0,0,0,0,0,0,0,0,0,0,0,0,0,0,0,0,0,0,0,0,0,0,0,0,0,0,0,0,0],"sum_hessian":[6.146515E3,1.6320455E3,4.514469E3,3.91732E1,1.5928723E3,1.6692341E3,2.8452354E3,5.7017717E0,3.3471428E1,1.6673307E3,1.9035261E0,1.5659501E3,1.2792852E3,4.149877E0,1.5518947E0,2.5369692E1,8.101736E0,1.628135E3,3.919557E1,1.5328816E3,3.30684E1,1.0622952E0,3.0875819E0,2.5815992E0,2.2788092E1,1.8674556E0,6.23428E0,1.332591E3,2.9554413E2,7.5422845E0,3.165329E1,1.53198395E1,1.7748562E1,1.1724544E0,1.409145E0,4.0114408E0,2.2228394E0,2.9447763E2,1.0665114E0,4.1380754E0,3.404209E0,3.0446909E1,1.2063804E0,1.4052072E1,1.2677681E0,1.6648762E0,1.6083685E1],"tree_param":{"num_deleted":"0","num_feature":"40","num_nodes":"47","size_leaf_vector":"1"}},{"base_weights":[1.7957643E-2,1.0270827E0,-3.4577286E-1,-7.1491E-1,3.2255206E-1,-1.0870953E0,9.214715E-2,-2.674063E-1,-3.370732E-1,-1.0898426E0,2.0469882E-1,1.0551846E0,-3.2600218E-1,2.2599672E-1,-3.425601E-1,-3.298376E-1,-7.047104E-1,3.2370305E-1,7.9144366E-2,-6.3328594E-1,9.0431094E-1,1.1689772E-1,-1.0811203E0,-8.2456744E-1,5.867293E-1,1.3074897E-1,-2.9665914E-1,3.4700373E-1,-9.4332784E-2,-2.525833E-1,1.9063716E-1,-3.3456585E-1,-9.829694E-2,5.341214E-2,-2.8453386E-1,-3.4673846E-1,2.4439038E-1],"categories":[],"categories_nodes":[],"categories_segments":[],"categories_sizes":[],"default_left":[0,0,0,0,0,0,0,0,0,0,0,0,0,0,0,0,0,0,0,0,0,0,0,0,0,0,0,0,0,0,0,0,0,0,0,0,0],"id":6,"left_children":[1,3,5,7,-1,9,11,13,-1,15,-1,17,-1,19,-1,-1,21,-1,23,25,27,29,31,33,35,-1,-1,-1,-1,-1,-1,-1,-1,-1,-1,-1,-1],"loss_changes":[1.7201757E3,1.04786865E2,1.1184426E3,5.9097633E0,0E0,6.9627686E0,2.4606807E3,7.817732E0,0E0,3.9572754E0,0E0,2.7655151E1,0E0,7.5879292E0,0E0,0E0,1.06137905E1,0E0,1.4017803E1,2.6730335E0,2.5591936E0,6.281401E0,2.3461723E-1,1.5384698E0,8.676538E0,0E0,0E0,0E0,0E0,0E0,0E0,0E0,0E0,0E0,0E0,0E0,0E0],"parents":[2147483647,0,0,1,1,2,2,3,3,5,5,6,6,7,7,9,9,11,11,13,13,16,16,18,18,19,19,20,20,21,21,22,22,23,23,24,24],"right_children":[2,4,6,8,-1,10,12,14,-1,16,-1,18,-1,20,-1,-1,22,-1,24,26,28,30,32,34,36,-1,-1,-1,-1,-1,-1,-1,-1,-1,-1,-1,-1],"split_conditions":[-7.5034076E-1,-1.7190708E0,1.05165936E-1,-1.07017286E-1,3.2255206E-1,2.260203E-1,1.0432655E0,1.353262E-1,-3.370732E-1,9.128126E-2,2.0469882E-1,1.0299698E0,-3.2600218E-1,-4.1026658E-1,-3.425601E-1,-3.298376E-1,-3.9039087E-1,3.2370305E-1,-5.543697E-1,-4.2945394E-1,1.0299474E-1,-5.2449673E-1,-2.4534758E-2,-4.259436E-2,-4.594414E-2,1.3074897E-1,-2.9665914E-1,3.4700373E-1,-9.4332784E-2,-2.525833E-1,1.9063716E-1,-3.3456585E-1,-9.829694E-2,5.341214E-2,-2.8453386E-1,-3.4673846E-1,2.4439038E-1],"split_indices":[0,0,0,13,0,32,0,9,0,0,0,0,0,24,0,0,33,0,6,24,24,19,15,11,4,0,0,0,0,0,0,0,0,0,0,0,0],"split_type":[0,0,0,0,0,0,0,0,0,0,0,0,0,0,0,0,0,0,0,0,0,0,0,0,0,0,0,0,0,0,0,0,0,0,0,0,0],"sum_hessian":[4.684527E3,1.2406562E3,3.4438704E3,3.295784E1,1.2076985E3,1.2783551E3,2.1655154E3,1.6521078E1,1.6436762E1,1.2767568E3,1.5982478E0,1.1918988E3,9.7361646E2,1.103582E1,5.485258E0,1.2438457E3,3.2911156E1,1.1633944E3,2.8504461E1,4.897761E0,6.138059E0,1.0557099E1,2.2354055E1,1.0027269E1,1.8477194E1,1.1660635E0,3.7316976E0,5.127282E0,1.0107768E0,3.486594E0,7.0705056E0,2.0926855E1,1.4271998E0,1.0546097E0,8.972659E0,1.666216E0,1.6810978E1],"tree_param":{"num_deleted":"0","num_feature":"40","num_nodes":"37","size_leaf_vector":"1"}},{"base_weights":[1.7642064E-2,1.0038798E0,-3.3694613E-1,-6.432261E-1,3.161909E-1,-1.0563881E0,8.997935E-2,2.3627472E-1,-8.1283957E-1,-1.0593753E0,1.8775594E-1,1.0291799E0,-3.1857696E-1,6.4120996E-1,-1.8331216E-1,-4.8020205E-1,-3.1772012E-1,-3.213569E-1,-6.3249266E-1,3.1703064E-1,5.6644056E-2,4.4915594E-2,2.2544517E-1,-6.489052E-1,1.8451679E-1,-7.912519E-1,3.2209358E-1,-5.2807176E-1,6.828269E-1,-2.3146048E-1,5.468173E-2,-3.0629683E-1,-5.4669112E-2,-2.6198741E-2,-3.34185E-1,-2.8416136E-1,3.0098012E-1],"categories":[],"categories_nodes":[],"categories_segments":[],"categories_sizes":[],"default_left":[0,0,0,0,0,0,0,0,0,0,0,0,0,0,0,0,0,0,0,0,0,0,0,0,0,0,0,0,0,0,0,0,0,0,0,0,0],"id":7,"left_children":[1,3,5,7,-1,9,11,13,15,17,-1,19,-1,21,-1,23,-1,-1,25,-1,27,-1,-1,29,-1,31,-1,33,35,-1,-1,-1,-1,-1,-1,-1,-1],"loss_changes":[1.2405714E3,7.807727E1,8.0155E2,4.414978E0,0E0,5.546509E0,1.7737372E3,2.2279491E0,1.45362E0,4.216919E0,0E0,2.4171082E1,0E0,1.1018932E-1,0E0,2.6200836E0,0E0,0E0,8.590216E0,0E0,9.868771E0,0E0,0E0,1.2518635E0,0E0,3.5525513E0,0E0,3.5159996E0,7.7279425E0,0E0,0E0,0E0,0E0,0E0,0E0,0E0,0E0],"parents":[2147483647,0,0,1,1,2,2,3,3,5,5,6,6,7,7,8,8,9,9,11,11,13,13,15,15,18,18,20,20,23,23,25,25,27,27,28,28],"right_children":[2,4,6,8,-1,10,12,14,16,18,-1,20,-1,22,-1,24,-1,-1,26,-1,28,-1,-1,30,-1,32,-1,34,36,-1,-1,-1,-1,-1,-1,-1,-1],"split_conditions":[-7.5034076E-1,-1.7190708E0,1.05165936E-1,-6.804737E-1,3.161909E-1,2.260203E-1,1.0432655E0,6.4495146E-1,-1.075961E-1,9.128126E-2,1.8775594E-1,1.0299698E0,-3.1857696E-1,-2.1372724E-1,-1.8331216E-1,-2.617049E-1,-3.1772012E-1,-3.213569E-1,-5.7248563E-2,3.1703064E-1,-5.543289E-1,4.4915594E-2,2.2544517E-1,-3.3734757E-2,1.8451679E-1,-2.619705E-1,3.2209358E-1,-3.9039087E-1,-4.594414E-2,-2.3146048E-1,5.468173E-2,-3.0629683E-1,-5.4669112E-2,-2.6198741E-2,-3.34185E-1,-2.8416136E-1,3.0098012E-1],"split_indices":[0,0,0,28,0,32,0,21,13,0,0,0,0,1,0,10,0,0,2,0,6,0,0,15,0,10,0,33,4,0,0,0,0,0,0,0,0],"split_type":[0,0,0,0,0,0,0,0,0,0,0,0,0,0,0,0,0,0,0,0,0,0,0,0,0,0,0,0,0,0,0,0,0,0,0,0,0],"sum_hessian":[3.5454792E3,9.371357E2,2.6083435E3,2.7308498E1,9.098272E2,9.708395E2,1.637504E3,4.3515067E0,2.2956993E1,9.694883E2,1.3512207E0,9.0209216E2,7.3541187E2,3.1089656E0,1.2425413E0,1.1019964E1,1.1937028E1,9.419106E2,2.7577658E1,8.7712335E2,2.4968796E1,1.00177E0,2.1071954E0,9.902247E0,1.1177164E0,2.5720545E1,1.8571119E0,1.2992947E1,1.1975848E1,8.691661E0,1.210587E0,1.8184483E1,7.5360637E0,8.070644E0,4.9223022E0,1.6461551E0,1.0329694E1],"tree_param":{"num_deleted":"0","num_feature":"40","num_nodes":"37","size_leaf_vector":"1"}},{"base_weights":[1.7578457E-2,9.854657E-1,-3.3003193E-1,-5.544095E-1,3.1160468E-1,-1.0314769E0,8.8269874E-2,-2.9869035E-1,-1.6519971E-1,-1.0472819E0,-5.3502244E-1,1.0089004E0,-3.1325698E-1,2.4330866E-1,-2.8749746E-1,-3.152166E-1,1.7244005E-1,1.7053522E-1,-9.7287285E-1,3.1221646E-1,3.8388763E-2,8.0488086E-1,-4.584567E-1,-2.3024511E-1,3.5287827E-1,-3.0727518E-1,-5.386601E-2,-4.3748593E-1,6.1910194E-1,-1.759651E-2,3.0425823E-1,-2.321157E-1,1.08442366E-1,5.481096E-2,-3.0576196E-1,-1.8373185E-1,2.0590498E-1,-2.3582041E-1,2.8672564E-1],"categories":[],"categories_nodes":[],"categories_segments":[],"categories_sizes":[],"default_left":[0,0,0,0,0,0,0,0,0,0,0,0,0,0,0,0,0,0,0,0,0,0,0,0,0,0,0,0,0,0,0,0,0,0,0,0,0,0,0],"id":8,"left_children":[1,3,5,7,-1,9,11,-1,13,15,17,19,-1,21,-1,-1,-1,23,25,-1,27,29,31,33,-1,-1,-1,35,37,-1,-1,-1,-1,-1,-1,-1,-1,-1,-1],"loss_changes":[8.997251E2,5.8481934E1,5.7741394E2,4.001095E0,0E0,5.2076416E0,1.2870562E3,0E0,4.797311E0,4.5736694E0,7.8041906E0,2.098761E1,0E0,4.3475366E0,0E0,0E0,0E0,4.430133E0,4.4402885E-1,0E0,6.5313106E0,1.1386998E0,1.6043757E0,2.862622E0,0E0,0E0,0E0,2.9836817E0,5.773817E0,0E0,0E0,0E0,0E0,0E0,0E0,0E0,0E0,0E0,0E0],"parents":[2147483647,0,0,1,1,2,2,3,3,5,5,6,6,8,8,9,9,10,10,11,11,13,13,17,17,18,18,20,20,21,21,22,22,23,23,27,27,28,28],"right_children":[2,4,6,8,-1,10,12,-1,14,16,18,20,-1,22,-1,-1,-1,24,26,-1,28,30,32,34,-1,-1,-1,36,38,-1,-1,-1,-1,-1,-1,-1,-1,-1,-1],"split_conditions":[-7.5034076E-1,-1.7190708E0,1.05165936E-1,-5.543812E-1,3.1160468E-1,9.128126E-2,1.0432655E0,-2.9869035E-1,1.353262E-1,2.260203E-1,-3.9039087E-1,1.0299698E0,-3.1325698E-1,4.9475712E-1,-2.8749746E-1,-3.152166E-1,1.7244005E-1,-3.7443864E-1,-2.4534758E-2,3.1221646E-1,-5.543289E-1,-4.1506344E-1,-4.4486767E-1,-4.7799397E-1,3.5287827E-1,-3.0727518E-1,-5.386601E-2,-4.7986273E-2,-4.594414E-2,-1.759651E-2,3.0425823E-1,-2.321157E-1,1.08442366E-1,5.481096E-2,-3.0576196E-1,-1.8373185E-1,2.0590498E-1,-2.3582041E-1,2.8672564E-1],"split_indices":[0,0,0,6,0,0,0,0,9,32,33,0,0,22,0,0,0,38,15,0,6,24,30,33,0,0,0,3,4,0,0,0,0,0,0,0,0,0,0],"split_type":[0,0,0,0,0,0,0,0,0,0,0,0,0,0,0,0,0,0,0,0,0,0,0,0,0,0,0,0,0,0,0,0,0,0,0,0,0,0,0],"sum_hessian":[2.6722239E3,7.0563025E2,1.9665936E3,2.3256664E1,6.8237354E2,7.3410925E2,1.2324844E3,1.016973E1,1.3086934E1,7.103842E2,2.372506E1,6.7988367E2,5.526007E2,9.095446E0,3.991488E0,7.092323E2,1.1519299E0,9.318933E0,1.4406127E1,6.582293E2,2.1654377E1,4.9707646E0,4.1246815E0,7.214879E0,2.1040542E0,1.3256502E1,1.1496247E0,1.2037058E1,9.617319E0,1.1102258E0,3.8605385E0,3.019897E0,1.1047845E0,5.240426E0,1.9744527E0,1.0809353E1,1.2277044E0,1.6007708E0,8.016548E0],"tree_param":{"num_deleted":"0","num_feature":"40","num_nodes":"39","size_leaf_vector":"1"}},{"base_weights":[1.7461674E-2,9.7059435E-1,-3.2437688E-1,-4.9844477E-1,3.0823153E-1,-1.0119342E0,8.729523E-2,-2.7741143E-1,-1.3634124E-1,-1.0316302E0,-4.702088E-1,9.919926E-1,-3.0935836E-1,2.5120577E-1,-8.323094E-1,-6.106295E-1,-3.1121886E-1,1.3368574E-1,-9.183297E-1,3.0867398E-1,4.543818E-2,-3.6667413E-1,2.5144634E-1,-2.7726617E-1,-7.548687E-2,-2.7287638E-1,2.2391753E-1,5.9079814E-1,-5.76249E-1,-2.9458204E-1,-4.426045E-2,6.2288195E-1,-3.781368E-1,1.1696922E-1,-2.208949E-1,-4.965651E-2,2.8524515E-1,-2.7690667E-1,7.048063E-2,2.7327016E-1,-1.0841642E-1,-3.5157588E-1,-1.4875459E-3],"categories":[],"categories_nodes":[],"categories_segments":[],"categories_sizes":[],"default_left":[0,0,0,0,0,0,0,0,0,0,0,0,0,0,0,0,0,0,0,0,0,0,0,0,0,0,0,0,0,0,0,0,0,0,0,0,0,0,0,0,0,0,0],"id":9,"left_children":[1,3,5,7,-1,9,11,-1,13,15,17,19,-1,21,23,25,-1,27,29,-1,31,33,-1,-1,-1,-1,-1,35,37,-1,-1,39,41,-1,-1,-1,-1,-1,-1,-1,-1,-1,-1],"loss_changes":[6.549407E2,4.4822266E1,4.188745E2,3.0289507E0,0E0,5.4281006E0,9.384116E2,0E0,3.5064154E0,6.6259766E-1,5.881463E0,1.7868622E1,0E0,3.433701E0,1.31902695E-2,4.5915804E0,0E0,3.5653195E0,4.6028614E-1,0E0,5.1985765E0,1.65611E0,0E0,0E0,0E0,0E0,0E0,1.9378376E0,1.4541438E0,0E0,0E0,2.8703346E0,3.6458297E0,0E0,0E0,0E0,0E0,0E0,0E0,0E0,0E0,0E0,0E0],"parents":[2147483647,0,0,1,1,2,2,3,3,5,5,6,6,8,8,9,9,10,10,11,11,13,13,14,14,15,15,17,17,18,18,20,20,21,21,27,27,28,28,31,31,32,32],"right_children":[2,4,6,8,-1,10,12,-1,14,16,18,20,-1,22,24,26,-1,28,30,-1,32,34,-1,-1,-1,-1,-1,36,38,-1,-1,40,42,-1,-1,-1,-1,-1,-1,-1,-1,-1,-1],"split_conditions":[-7.5034076E-1,-1.7190708E0,1.05165936E-1,-5.5437887E-1,3.0823153E-1,9.128126E-2,1.0432655E0,-2.7741143E-1,1.0299474E-1,-7.367927E-1,-3.9039087E-1,1.0299698E0,-3.0935836E-1,-4.1026658E-1,-2.1372214E-1,-1.1719481E0,-3.1121886E-1,-1.0362196E-1,-2.6116574E-1,3.0867398E-1,-4.7799397E-1,-4.2945394E-1,2.5144634E-1,-2.7726617E-1,-7.548687E-2,-2.7287638E-1,2.2391753E-1,-2.619705E-1,-4.1749343E-2,-2.9458204E-1,-4.426045E-2,1.0237706E0,-4.4486767E-1,1.1696922E-1,-2.208949E-1,-4.965651E-2,2.8524515E-1,-2.7690667E-1,7.048063E-2,2.7327016E-1,-1.0841642E-1,-3.5157588E-1,-1.4875459E-3],"split_indices":[0,0,0,6,0,0,0,0,24,0,33,0,0,24,1,7,0,13,10,0,33,24,0,0,0,0,0,10,4,0,0,21,30,0,0,0,0,0,0,0,0,0,0],"split_type":[0,0,0,0,0,0,0,0,0,0,0,0,0,0,0,0,0,0,0,0,0,0,0,0,0,0,0,0,0,0,0,0,0,0,0,0,0,0,0,0,0,0,0],"sum_hessian":[2.0081794E3,5.2962134E2,1.4785581E3,1.9440687E1,5.1018066E2,5.5318835E2,9.253698E2,8.215677E0,1.122501E1,5.329085E2,2.0279818E1,5.1163983E2,4.1372995E2,7.620578E0,3.6044316E0,8.644419E0,5.242641E2,8.937364E0,1.1342453E1,4.9234863E2,1.929121E1,3.895295E0,3.7252831E0,2.601126E0,1.0033059E0,7.3540115E0,1.2904074E0,5.538835E0,3.3985288E0,1.0224719E1,1.1177341E0,7.9638543E0,1.1327355E1,1.2605159E0,2.634779E0,1.9605011E0,3.578334E0,2.2841904E0,1.1143384E0,6.2186775E0,1.7451769E0,2.9378722E0,8.389483E0],"tree_param":{"num_deleted":"0","num_feature":"40","num_nodes":"43","size_leaf_vector":"1"}},{"base_weights":[1.6802458E-2,9.5674E-1,-3.2000807E-1,-4.491523E-1,3.0569082E-1,-1.0197673E0,7.306192E-2,-1.2378047E-1,-2.5541127E-1,-5.597994E-1,-3.0790782E-1,9.1368103E-1,-3.0642533E-1,2.2551614E-1,-2.4300972E-1,1.9797972E-1,-2.6269987E-1,-4.2225343E-1,9.740762E-1,6.6169775E-1,-3.120968E-1,5.1079743E-2,-2.8199494E-1,3.060055E-1,2.8170407E-2,4.1602243E-2,2.5502053E-1,5.1563468E-2,-1.6786425E-1,-1.7059621E-1,1.4606191E-1,9.765372E-2,-1.8745448E-1],"categories":[],"categories_nodes":[],"categories_segments":[],"categories_sizes":[],"default_left":[0,0,0,0,0,0,0,0,0,0,0,0,0,0,0,0,0,0,0,0,0,0,0,0,0,0,0,0,0,0,0,0,0],"id":10,"left_children":[1,3,5,7,-1,9,11,13,-1,15,-1,17,-1,19,-1,-1,-1,21,23,25,27,29,-1,-1,31,-1,-1,-1,-1,-1,-1,-1,-1],"loss_changes":[4.7784265E2,3.5293243E1,3.0572647E2,2.1942236E0,0E0,6.375427E-1,6.56446E2,2.7915978E0,0E0,3.60153E0,0E0,3.296756E1,0E0,2.0812929E0,0E0,0E0,0E0,4.4958906E0,1.6760986E1,3.485539E-1,6.064205E-1,3.093787E0,0E0,0E0,3.8778994E0,0E0,0E0,0E0,0E0,0E0,0E0,0E0,0E0],"parents":[2147483647,0,0,1,1,2,2,3,3,5,5,6,6,7,7,9,9,11,11,13,13,17,17,18,18,19,19,20,20,21,21,24,24],"right_children":[2,4,6,8,-1,10,12,14,-1,16,-1,18,-1,20,-1,-1,-1,22,24,26,28,30,-1,-1,32,-1,-1,-1,-1,-1,-1,-1,-1],"split_conditions":[-7.5034076E-1,-1.7190708E0,9.128126E-2,-1.07017286E-1,3.0569082E-1,-7.367927E-1,1.0432655E0,1.353262E-1,-2.5541127E-1,-2.6329732E-1,-3.0790782E-1,1.05165936E-1,-3.0642533E-1,4.9475712E-1,-2.4300972E-1,1.9797972E-1,-2.6269987E-1,-3.0278778E-1,1.0299698E0,-2.9514256E-1,-5.0013465E-1,-2.62824E-1,-2.8199494E-1,3.060055E-1,-1.0098726E-1,4.1602243E-2,2.5502053E-1,5.1563468E-2,-1.6786425E-1,-1.7059621E-1,1.4606191E-1,9.765372E-2,-1.8745448E-1],"split_indices":[0,0,0,13,0,0,0,9,0,10,0,0,0,22,0,0,0,33,0,24,28,19,0,0,13,0,0,0,0,0,0,0,0],"split_type":[0,0,0,0,0,0,0,0,0,0,0,0,0,0,0,0,0,0,0,0,0,0,0,0,0,0,0,0,0,0,0,0,0],"sum_hessian":[1.5074188E3,3.971767E2,1.1102422E3,1.6571606E1,3.806051E2,3.987596E2,7.1148254E2,9.883867E0,6.687739E0,6.848077E0,3.9191153E2,4.0250345E2,3.0897906E2,6.9949E0,2.888967E0,1.1845638E0,5.663513E0,1.7150257E1,3.8535318E2,3.7343237E0,3.2605762E0,9.430125E0,7.720131E0,3.6742902E2,1.7924171E1,1.4485383E0,2.2857854E0,1.2064168E0,2.0541594E0,3.7675252E0,5.6626005E0,1.2660798E1,5.263373E0],"tree_param":{"num_deleted":"0","num_feature":"40","num_nodes":"33","size_leaf_vector":"1"}},{"base_weights":[1.6093377E-2,9.434679E-1,-3.1587273E-1,-3.9112806E-1,3.0371347E-1,-1.0101117E0,7.102348E-2,3.0669764E-1,-5.6906813E-1,-5.058398E-1,-3.0536813E-1,8.8880116E-1,-3.041392E-1,1.6678363E-1,1.7772992E-4,-7.570465E-1,-1.2300267E-1,-2.5059575E-1,1.9514793E-1,-3.700826E-1,9.550481E-1,-2.6238652E-2,-8.5292137E-1,-1.7670383E-1,2.2146066E-1,-6.6748697E-1,3.087595E-1,3.039297E-1,1.5086316E-2,-2.7255568E-1,-7.91657E-2,-6.124912E-2,1.4244881E-1,-2.664008E-1,-4.315367E-2,2.0251445E-1,-2.0468964E-1,6.5538585E-2,-2.8146124E-1],"categories":[],"categories_nodes":[],"categories_segments":[],"categories_sizes":[],"default_left":[0,0,0,0,0,0,0,0,0,0,0,0,0,0,0,0,0,0,0,0,0,0,0,0,0,0,0,0,0,0,0,0,0,0,0,0,0,0,0],"id":11,"left_children":[1,3,5,7,-1,9,11,13,15,17,-1,19,-1,-1,-1,21,23,-1,-1,25,27,-1,29,-1,31,33,35,-1,37,-1,-1,-1,-1,-1,-1,-1,-1,-1,-1],"loss_changes":[3.4909796E2,2.7886078E1,2.243735E2,2.0864537E0,0E0,6.581116E-1,4.7744992E2,2.8793904E-1,9.6500826E-1,3.0314183E0,0E0,2.5941162E1,0E0,0E0,0E0,4.8287678E-1,9.2267007E-1,0E0,0E0,3.4483278E0,1.5904633E1,0E0,5.2809715E-3,0E0,4.8133388E-1,1.1982555E0,2.4847705E0,0E0,3.6919458E0,0E0,0E0,0E0,0E0,0E0,0E0,0E0,0E0,0E0,0E0],"parents":[2147483647,0,0,1,1,2,2,3,3,5,5,6,6,7,7,8,8,9,9,11,11,15,15,16,16,19,19,20,20,22,22,24,24,25,25,26,26,28,28],"right_children":[2,4,6,8,-1,10,12,14,16,18,-1,20,-1,-1,-1,22,24,-1,-1,26,28,-1,30,-1,32,34,36,-1,38,-1,-1,-1,-1,-1,-1,-1,-1,-1,-1],"split_conditions":[-7.5034076E-1,-1.7190708E0,9.128126E-2,-6.804737E-1,3.0371347E-1,-7.367927E-1,1.0432655E0,-3.0953306E-1,-2.6230732E-1,-1.1719481E0,-3.0536813E-1,1.05165936E-1,-3.041392E-1,1.6678363E-1,1.7772992E-4,-6.441902E-1,-3.5884884E-1,-2.5059575E-1,1.9514793E-1,-9.124883E-2,1.0299698E0,-2.6238652E-2,-9.0775594E-2,-1.7670383E-1,-3.9039087E-1,-2.62824E-1,-4.1542087E-2,3.039297E-1,1.6682488E0,-2.7255568E-1,-7.91657E-2,-6.124912E-2,1.4244881E-1,-2.664008E-1,-4.315367E-2,2.0251445E-1,-2.0468964E-1,6.5538585E-2,-2.8146124E-1],"split_indices":[0,0,0,28,0,0,0,24,10,7,0,0,0,0,0,38,9,0,0,3,0,0,16,0,33,19,27,0,26,0,0,0,0,0,0,0,0,0,0],"split_type":[0,0,0,0,0,0,0,0,0,0,0,0,0,0,0,0,0,0,0,0,0,0,0,0,0,0,0,0,0,0,0,0,0,0,0,0,0,0,0],"sum_hessian":[1.1319935E3,2.9791144E2,8.340821E2,1.439747E1,2.8351398E2,2.979091E2,5.3617303E2,2.778288E0,1.1619183E1,5.5305223E0,2.9237854E2,3.0581735E2,2.3035567E2,1.0814892E0,1.6967988E0,7.683909E0,3.9352741E0,4.52018E0,1.0103422E0,1.5059367E1,2.90758E2,1.201933E0,6.4819756E0,1.3708138E0,2.5644603E0,1.0483303E1,4.576064E0,2.7377237E2,1.6985638E1,5.4273224E0,1.0546535E0,1.0294051E0,1.5350552E0,6.8871613E0,3.5961413E0,3.5739987E0,1.0020652E0,1.4634365E1,2.3512716E0],"tree_param":{"num_deleted":"0","num_feature":"40","num_nodes":"39","size_leaf_vector":"1"}},{"base_weights":[1.4963677E-2,9.284664E-1,-3.1191236E-1,-3.3823422E-1,3.0210024E-1,-1.0019444E0,6.827787E-2,-2.3127952E-1,-4.933802E-2,-4.5279717E-1,-3.033455E-1,8.5932714E-1,-3.0226582E-1,2.605163E-1,-1.9479126E-1,1.3815479E-1,-2.3557013E-1,-3.2172877E-1,9.327425E-1,-2.3360997E-1,2.1580307E-1,7.554707E-2,-2.6216683E-1,3.0223817E-1,-3.8971729E-3,1.09314114E-1,-1.7616093E-1,-8.305719E-2,2.7169657E-1,1.6092718E-1,-1.067568E-1],"categories":[],"categories_nodes":[],"categories_segments":[],"categories_sizes":[],"default_left":[0,0,0,0,0,0,0,0,0,0,0,0,0,0,0,0,0,0,0,0,0,0,0,0,0,0,0,0,0,0,0],"id":12,"left_children":[1,3,5,7,-1,9,11,-1,13,15,-1,17,-1,19,-1,-1,-1,21,23,25,-1,27,-1,-1,29,-1,-1,-1,-1,-1,-1],"loss_changes":[2.5479259E2,2.2709717E1,1.6493904E2,1.6965175E0,0E0,6.7126465E-1,3.4650107E2,0E0,1.9145787E0,2.0295248E0,0E0,2.0640335E1,0E0,1.7335484E0,0E0,0E0,0E0,3.2406187E0,1.5478165E1,1.0765548E0,0E0,2.9820998E0,0E0,0E0,3.4868636E0,0E0,0E0,0E0,0E0,0E0,0E0],"parents":[2147483647,0,0,1,1,2,2,3,3,5,5,6,6,8,8,9,9,11,11,13,13,17,17,18,18,19,19,21,21,24,24],"right_children":[2,4,6,8,-1,10,12,-1,14,16,-1,18,-1,20,-1,-1,-1,22,24,26,-1,28,-1,-1,30,-1,-1,-1,-1,-1,-1],"split_conditions":[-7.5034076E-1,-1.7190708E0,9.128126E-2,-5.543812E-1,3.0210024E-1,-7.367927E-1,1.0432655E0,-2.3127952E-1,6.9416896E-2,-2.6228222E-1,-3.033455E-1,1.05165936E-1,-3.0226582E-1,-4.1026658E-1,-1.9479126E-1,1.3815479E-1,-2.3557013E-1,-3.0278778E-1,1.0299698E0,-4.2945394E-1,2.1580307E-1,-3.197956E-1,-2.6216683E-1,3.0223817E-1,-4.7799397E-1,1.09314114E-1,-1.7616093E-1,-8.305719E-2,2.7169657E-1,1.6092718E-1,-1.067568E-1],"split_indices":[0,0,0,6,0,0,0,0,24,10,0,0,0,24,0,0,0,33,0,24,0,28,0,0,33,0,0,0,0,0,0],"split_type":[0,0,0,0,0,0,0,0,0,0,0,0,0,0,0,0,0,0,0,0,0,0,0,0,0,0,0,0,0,0,0],"sum_hessian":[8.5131464E2,2.2386128E2,6.2745337E2,1.2875909E1,2.1098537E2,2.2231819E2,4.051352E2,4.4869647E0,8.388944E0,4.493445E0,2.1782475E2,2.3358405E2,1.7155115E2,5.9050465E0,2.4838974E0,1.0962924E0,3.3971527E0,1.347209E1,2.2011195E2,3.079493E0,2.8255537E0,8.336915E0,5.1351748E0,2.037803E2,1.6331654E1,1.132954E0,1.9465389E0,6.320265E0,2.0166504E0,6.2352676E0,1.0096385E1],"tree_param":{"num_deleted":"0","num_feature":"40","num_nodes":"31","size_leaf_vector":"1"}},{"base_weights":[1.4450454E-2,9.1342777E-1,-3.065328E-1,-2.9618806E-1,3.006954E-1,-9.9419504E-1,6.687677E-2,3.0213553E-1,-4.7438508E-1,-4.0166682E-1,-3.0164534E-1,8.283608E-1,-3.0062264E-1,1.790146E-2,1.2841861E-1,-1.9945641E-1,-2.3923467E-1,1.1731684E-1,-2.2180906E-1,-2.6436248E-1,9.0857506E-1,3.6235392E-2,-1.8838777E-1,3.180016E-1,-6.186433E-1,3.007679E-1,2.8095802E-3,-1.0969827E-1,1.3712205E-1,2.2378145E-1,-1.1661799E-1,-2.4938746E-1,1.8167786E-2,-5.7759732E-2,2.36375E-1],"categories":[],"categories_nodes":[],"categories_segments":[],"categories_sizes":[],"default_left":[0,0,0,0,0,0,0,0,0,0,0,0,0,0,0,0,0,0,0,0,0,0,0,0,0,0,0,0,0,0,0,0,0,0,0],"id":13,"left_children":[1,3,5,7,-1,9,11,13,15,17,-1,19,-1,-1,-1,21,-1,-1,-1,23,25,27,-1,29,31,-1,33,-1,-1,-1,-1,-1,-1,-1,-1],"loss_changes":[1.8566278E2,1.8498947E1,1.2182187E2,1.4611949E0,0E0,7.1276855E-1,2.5172925E2,7.971531E-2,7.214167E-1,1.5704077E0,0E0,1.606594E1,0E0,0E0,0E0,6.983117E-1,0E0,0E0,0E0,2.9040914E0,1.4335312E1,1.0569199E0,0E0,1.9908168E0,1.2777569E0,0E0,2.733835E0,0E0,0E0,0E0,0E0,0E0,0E0,0E0,0E0],"parents":[2147483647,0,0,1,1,2,2,3,3,5,5,6,6,7,7,8,8,9,9,11,11,15,15,19,19,20,20,21,21,23,23,24,24,26,26],"right_children":[2,4,6,8,-1,10,12,14,16,18,-1,20,-1,-1,-1,22,-1,-1,-1,24,26,28,-1,30,32,-1,34,-1,-1,-1,-1,-1,-1,-1,-1],"split_conditions":[-7.5034076E-1,-1.7190708E0,9.128126E-2,-6.804737E-1,3.006954E-1,-7.367927E-1,1.0432655E0,9.503193E-2,-3.411719E-2,-2.6228222E-1,-3.0164534E-1,1.05165936E-1,-3.0062264E-1,1.790146E-2,1.2841861E-1,1.353262E-1,-2.3923467E-1,1.1731684E-1,-2.2180906E-1,-4.7799397E-1,1.0299698E0,-4.1026658E-1,-1.8838777E-1,-1.01612695E-1,-2.615709E-1,3.007679E-1,-5.7248563E-2,-1.0969827E-1,1.3712205E-1,2.2378145E-1,-1.1661799E-1,-2.4938746E-1,1.8167786E-2,-5.7759732E-2,2.36375E-1],"split_indices":[0,0,0,28,0,0,0,19,1,10,0,0,0,0,0,9,0,0,0,33,0,24,0,13,10,0,2,0,0,0,0,0,0,0,0],"split_type":[0,0,0,0,0,0,0,0,0,0,0,0,0,0,0,0,0,0,0,0,0,0,0,0,0,0,0,0,0,0,0,0,0,0,0],"sum_hessian":[6.414485E2,1.6828558E2,4.731629E2,1.1360464E1,1.5692513E2,1.6592918E2,3.0723373E2,2.4474077E0,8.913056E0,3.786238E0,1.6214294E2,1.7955215E2,1.2768157E2,1.3404022E0,1.1070055E0,5.689045E0,3.2240117E0,1.0838811E0,2.7023568E0,1.2122123E1,1.6743004E2,4.260858E0,1.4281868E0,4.6238594E0,7.4982634E0,1.5159343E2,1.5836601E1,2.2465434E0,2.0143147E0,2.8454237E0,1.7784357E0,5.539885E0,1.9583783E0,1.3285751E1,2.5508504E0],"tree_param":{"num_deleted":"0","num_feature":"40","num_nodes":"35","size_leaf_vector":"1"}},{"base_weights":[1.3900356E-2,8.9535385E-1,-3.002749E-1,-2.5934204E-1,2.993681E-1,-9.8636144E-1,6.559895E-2,2.6075798E-1,-4.283167E-1,-3.5471925E-1,-3.001094E-1,7.9365385E-1,-2.9905662E-1,1.4855816E-2,1.1248844E-1,-6.2740415E-1,-5.2369017E-2,9.909718E-2,-2.076731E-1,-2.2416857E-1,8.807824E-1,-5.2782997E-2,-2.106887E-1,-1.06946655E-1,7.695993E-2,9.096806E-2,-2.3770583E-1,2.9938254E-1,1.640687E-2,-6.250358E-2,2.319238E-1,6.805477E-2,-2.0546049E-1],"categories":[],"categories_nodes":[],"categories_segments":[],"categories_sizes":[],"default_left":[0,0,0,0,0,0,0,0,0,0,0,0,0,0,0,0,0,0,0,0,0,0,0,0,0,0,0,0,0,0,0,0,0],"id":14,"left_children":[1,3,5,7,-1,9,11,13,15,17,-1,19,-1,-1,-1,21,23,-1,-1,25,27,-1,-1,-1,-1,29,-1,-1,31,-1,-1,-1,-1],"loss_changes":[1.3481897E2,1.5404945E1,9.016641E1,1.0983514E0,0E0,7.499237E-1,1.82599E2,6.284268E-2,6.2970567E-1,1.2132761E0,0E0,1.2614967E1,0E0,0E0,0E0,6.903386E-2,4.8186898E-1,0E0,0E0,2.1918135E0,1.3066208E1,0E0,0E0,0E0,0E0,1.8989023E0,0E0,0E0,2.5810633E0,0E0,0E0,0E0,0E0],"parents":[2147483647,0,0,1,1,2,2,3,3,5,5,6,6,7,7,8,8,9,9,11,11,15,15,16,16,19,19,20,20,25,25,28,28],"right_children":[2,4,6,8,-1,10,12,14,16,18,-1,20,-1,-1,-1,22,24,-1,-1,26,28,-1,-1,-1,-1,30,-1,-1,32,-1,-1,-1,-1],"split_conditions":[-7.5034076E-1,-1.7190708E0,9.128126E-2,-6.804737E-1,2.993681E-1,-7.367927E-1,1.0432655E0,9.503193E-2,-2.6230732E-1,-2.6228222E-1,-3.001094E-1,1.05165936E-1,-2.9905662E-1,1.4855816E-2,1.1248844E-1,-4.558292E-2,-5.543331E-1,9.909718E-2,-2.076731E-1,-3.0278778E-1,1.0299698E0,-5.2782997E-2,-2.106887E-1,-1.06946655E-1,7.695993E-2,-3.197956E-1,-2.3770583E-1,2.9938254E-1,1.0237706E0,-6.250358E-2,2.319238E-1,6.805477E-2,-2.0546049E-1],"split_indices":[0,0,0,28,0,0,0,19,10,10,0,0,0,0,0,4,6,0,0,33,0,0,0,0,0,28,0,0,21,0,0,0,0],"split_type":[0,0,0,0,0,0,0,0,0,0,0,0,0,0,0,0,0,0,0,0,0,0,0,0,0,0,0,0,0,0,0,0,0],"sum_hessian":[4.848617E2,1.2692098E2,3.579407E2,1.0226928E1,1.1669405E2,1.2390263E2,2.3403809E2,2.3746457E0,7.852282E0,3.258355E0,1.2064428E2,1.390239E2,9.501418E1,1.3363843E0,1.0382615E0,4.6963925E0,3.1558893E0,1.0825443E0,2.1758106E0,1.0838413E1,1.2818549E2,1.1447738E0,3.5516188E0,1.5126281E0,1.6432613E0,7.511915E0,3.326498E0,1.1274874E2,1.5436745E1,5.703676E0,1.8082389E0,1.2394005E1,3.0427396E0],"tree_param":{"num_deleted":"0","num_feature":"40","num_nodes":"33","size_leaf_vector":"1"}},{"base_weights":[1.2523068E-2,-2.962277E-1,2.8009877E-1,6.690951E-1,-2.9725707E-1,2.9033485E-1,8.16628E-1,6.895864E-1,-1.3650605E-1,-2.0860076E-1,8.6568606E-1,7.873891E-1,-1.1097284E-1,2.5566408E-1,-3.3223304E-1,1.2960052E-1,-4.8210374E-1,9.473547E-1,3.939294E-1,-5.843452E-2,2.4953067E-1,-1.8256496E-1,1.8328871E-1,-1.4685635E-1,1.9034867E-1,4.45384E-2,-1.9603913E-1,1.7963384E-1,2.932315E-1,-2.157818E-2,2.7606362E-1],"categories":[],"categories_nodes":[],"categories_segments":[],"categories_sizes":[],"default_left":[0,0,0,0,0,0,0,0,0,0,0,0,0,0,0,0,0,0,0,0,0,0,0,0,0,0,0,0,0,0,0],"id":15,"left_children":[1,-1,3,5,-1,7,9,11,13,15,17,19,21,-1,23,-1,25,27,29,-1,-1,-1,-1,-1,-1,-1,-1,-1,-1,-1,-1],"loss_changes":[9.915837E1,0E0,1.451897E2,1.2303467E1,0E0,1.1079617E1,8.276115E0,2.7082014E0,6.4737177E0,1.6372759E0,5.552475E0,1.4675903E0,1.9956803E0,0E0,4.4803762E0,0E0,7.656908E-1,7.82074E-1,6.0504413E0,0E0,0E0,0E0,0E0,0E0,0E0,0E0,0E0,0E0,0E0,0E0,0E0],"parents":[2147483647,0,0,2,2,3,3,5,5,6,6,7,7,8,8,9,9,10,10,11,11,12,12,14,14,16,16,17,17,18,18],"right_children":[2,-1,4,6,-1,8,10,12,14,16,18,20,22,-1,24,-1,26,28,30,-1,-1,-1,-1,-1,-1,-1,-1,-1,-1,-1,-1],"split_conditions":[-1.1719481E0,-2.962277E-1,1.0432655E0,-5.5430245E-1,-2.9725707E-1,-4.7799397E-1,-4.594414E-2,-3.915155E-2,-4.259436E-2,-4.7799397E-1,-3.1316634E-2,-1.7190708E0,1.7876184E-1,2.5566408E-1,2.1414604E-2,1.2960052E-1,-1.20559E0,-5.5420905E-1,1.05165936E-1,-5.843452E-2,2.4953067E-1,-1.8256496E-1,1.8328871E-1,-1.4685635E-1,1.9034867E-1,4.45384E-2,-1.9603913E-1,1.7963384E-1,2.932315E-1,-2.157818E-2,2.7606362E-1],"split_indices":[7,0,0,6,0,33,4,27,11,33,24,0,25,0,16,0,0,6,0,0,0,0,0,0,0,0,0,0,0,0,0],"split_type":[0,0,0,0,0,0,0,0,0,0,0,0,0,0,0,0,0,0,0,0,0,0,0,0,0,0,0,0,0,0,0],"sum_hessian":[3.6856595E2,7.723674E1,2.9132922E2,2.2342114E2,6.790807E1,6.346241E1,1.5995872E2,3.2472885E1,3.0989525E1,7.156117E0,1.5280261E2,2.8952295E1,3.5205913E0,4.5666895E0,2.6422836E1,1.9677385E0,5.1883783E0,1.2939426E2,2.340836E1,1.1051521E0,2.7847143E1,2.1771197E0,1.3434715E0,2.3149939E1,3.272897E0,1.1372375E0,4.051141E0,1.1940814E1,1.17453445E2,1.2874974E1,1.0533384E1],"tree_param":{"num_deleted":"0","num_feature":"40","num_nodes":"31","size_leaf_vector":"1"}},{"base_weights":[1.2499119E-2,8.50687E-1,-2.9134402E-1,-2.1760139E-1,2.9681504E-1,-9.7345936E-1,7.047533E-2,-1.719848E-5,-1.785429E-1,-2.685191E-1,-2.976172E-1,7.0609295E-1,-2.9560333E-1,2.4360053E-1,-1.7517942E-1,6.253485E-2,-1.7034489E-1,-2.2146085E-1,8.1633157E-1,-1.4112028E-1,5.387475E-1,-2.0105703E-1,9.5984265E-2,2.9668126E-1,-4.45278E-2,7.9401165E-2,-1.5476882E-1,2.0670868E-1,2.8338255E-2,1.9413728E-1,-6.0652755E-2,-8.7323956E-2,1.7654073E-1],"categories":[],"categories_nodes":[],"categories_segments":[],"categories_sizes":[],"default_left":[0,0,0,0,0,0,0,0,0,0,0,0,0,0,0,0,0,0,0,0,0,0,0,0,0,0,0,0,0,0,0,0,0],"id":16,"left_children":[1,3,5,7,-1,9,11,13,-1,15,-1,17,-1,19,-1,-1,-1,21,23,25,27,-1,29,-1,31,-1,-1,-1,-1,-1,-1,-1,-1],"loss_changes":[7.477061E1,1.1788239E1,5.3256767E1,8.046298E-1,0E0,7.137604E-1,9.582236E1,1.1684433E0,0E0,5.884253E-1,0E0,9.287735E0,0E0,7.341431E-1,0E0,0E0,0E0,1.5240252E0,1.1903881E1,6.397089E-1,1.6775441E-1,0E0,1.2608038E0,0E0,2.401103E0,0E0,0E0,0E0,0E0,0E0,0E0,0E0,0E0],"parents":[2147483647,0,0,1,1,2,2,3,3,5,5,6,6,7,7,9,9,11,11,13,13,17,17,18,18,19,19,20,20,22,22,24,24],"right_children":[2,4,6,8,-1,10,12,14,-1,16,-1,18,-1,20,-1,-1,-1,22,24,26,28,-1,30,-1,32,-1,-1,-1,-1,-1,-1,-1,-1],"split_conditions":[-7.5034076E-1,-1.7190708E0,9.128126E-2,-1.07017286E-1,2.9681504E-1,-7.367927E-1,1.0432655E0,1.353262E-1,-1.785429E-1,-1.8918765E-1,-2.976172E-1,1.05165936E-1,-2.9560333E-1,-4.1026658E-1,-1.7517942E-1,6.253485E-2,-1.7034489E-1,5.733643E-3,1.0299698E0,-4.3648653E-2,-4.0910304E-2,-2.0105703E-1,-6.804737E-1,2.9668126E-1,1.0961914E0,7.9401165E-2,-1.5476882E-1,2.0670868E-1,2.8338255E-2,1.9413728E-1,-6.0652755E-2,-8.7323956E-2,1.7654073E-1],"split_indices":[0,0,0,13,0,0,0,9,0,25,0,0,0,24,0,0,0,23,0,4,24,0,28,0,18,0,0,0,0,0,0,0,0],"split_type":[0,0,0,0,0,0,0,0,0,0,0,0,0,0,0,0,0,0,0,0,0,0,0,0,0,0,0,0,0,0,0,0,0],"sum_hessian":[2.9161606E2,7.7107086E1,2.1450897E2,8.7951145E0,6.831197E1,7.376118E1,1.4074779E2,6.2139473E0,2.5811672E0,2.2927961E0,7.146838E1,8.8063576E1,5.2684216E1,4.7958584E0,1.4180892E0,1.0010425E0,1.2917536E0,9.247309E0,7.881627E1,2.3085513E0,2.4873068E0,3.3709922E0,5.876316E0,6.552871E1,1.3287557E1,1.2494698E0,1.0590816E0,1.4469916E0,1.0403154E0,1.6520884E0,4.2242274E0,9.951577E0,3.3359795E0],"tree_param":{"num_deleted":"0","num_feature":"40","num_nodes":"33","size_leaf_vector":"1"}},{"base_weights":[1.1603158E-2,8.232588E-1,-2.808548E-1,-1.9003652E-1,2.9506183E-1,-9.6232635E-1,6.783114E-2,1.2750934E-2,-1.7523658E-1,-2.3999822E-1,-2.9576984E-1,6.551412E-1,-2.934336E-1,-4.6143612E-1,3.385756E-1,5.286568E-2,-1.575693E-1,8.0766016E-1,-2.3467764E-2,-4.4392858E-2,-1.6620089E-1,-1.1554062E-2,1.8755072E-1,-1.7500147E-1,2.9485732E-1,-3.55659E-1,3.8571852E-1,2.084744E-2,-2.1042415E-1,-2.302052E-1,3.915462E-2,2.7188626E-1,-2.3225887E-1],"categories":[],"categories_nodes":[],"categories_segments":[],"categories_sizes":[],"default_left":[0,0,0,0,0,0,0,0,0,0,0,0,0,0,0,0,0,0,0,0,0,0,0,0,0,0,0,0,0,0,0,0,0],"id":17,"left_children":[1,3,5,7,-1,9,11,13,-1,15,-1,17,-1,19,21,-1,-1,23,25,-1,-1,-1,-1,27,-1,29,31,-1,-1,-1,-1,-1,-1],"loss_changes":[5.3670727E1,9.913097E0,3.956733E1,7.280451E-1,0E0,7.2262955E-1,6.87696E1,1.2272532E0,0E0,4.6083647E-1,0E0,7.4320526E0,0E0,1.2220681E-2,5.304579E-1,0E0,0E0,1.0244793E1,2.0558507E0,0E0,0E0,0E0,0E0,1.2974101E0,0E0,1.7636087E0,4.8102555E0,0E0,0E0,0E0,0E0,0E0,0E0],"parents":[2147483647,0,0,1,1,2,2,3,3,5,5,6,6,7,7,9,9,11,11,13,13,14,14,17,17,18,18,23,23,25,25,26,26],"right_children":[2,4,6,8,-1,10,12,14,-1,16,-1,18,-1,20,22,-1,-1,24,26,-1,-1,-1,-1,28,-1,30,32,-1,-1,-1,-1,-1,-1],"split_conditions":[-7.5034076E-1,-1.7190708E0,9.128126E-2,1.0299474E-1,2.9506183E-1,-7.367927E-1,1.0432655E0,-3.5884884E-1,-1.7523658E-1,-1.8918765E-1,-2.9576984E-1,1.0299698E0,-2.934336E-1,7.950535E-1,-1.2474974E-1,5.286568E-2,-1.575693E-1,1.05165936E-1,-2.6215017E-1,-4.4392858E-2,-1.6620089E-1,-1.1554062E-2,1.8755072E-1,-3.0278778E-1,2.9485732E-1,-4.1026658E-1,1.6682488E0,2.084744E-2,-2.1042415E-1,-2.302052E-1,3.915462E-2,2.7188626E-1,-2.3225887E-1],"split_indices":[0,0,0,24,0,0,0,9,0,25,0,0,0,21,1,0,0,0,10,0,0,0,0,33,0,24,26,0,0,0,0,0,0],"split_type":[0,0,0,0,0,0,0,0,0,0,0,0,0,0,0,0,0,0,0,0,0,0,0,0,0,0,0,0,0,0,0,0,0],"sum_hessian":[2.2412682E2,5.8886032E1,1.6524078E2,8.016978E0,5.0869053E1,5.533474E1,1.09906044E2,5.9320984E0,2.0848796E0,2.102128E0,5.323261E1,7.0623634E1,3.928241E1,2.2464828E0,3.6856158E0,1.0102072E0,1.091921E0,5.750833E1,1.3115304E1,1.1045892E0,1.1418936E0,1.9653268E0,1.7202889E0,8.701849E0,4.880648E1,7.31089E0,5.804414E0,6.5347605E0,2.167088E0,3.6455233E0,3.665367E0,4.1572866E0,1.6471272E0],"tree_param":{"num_deleted":"0","num_feature":"40","num_nodes":"33","size_leaf_vector":"1"}},{"base_weights":[8.232519E-3,-2.887569E-1,2.3923491E-1,5.487986E-1,-2.903659E-1,3.6216155E-1,9.4973034E-1,6.8315333E-1,6.521836E-2,2.9022613E-1,5.2407432E-2,-6.853935E-2,7.408432E-1,5.5022436E-1,-1.807329E-1,4.9774896E-2,-8.68993E-2,2.638619E-1,1.229488E-1,-4.5483932E-2,2.6985094E-1,-2.3260397E-1,1.0938481E-1],"categories":[],"categories_nodes":[],"categories_segments":[],"categories_sizes":[],"default_left":[0,0,0,0,0,0,0,0,0,0,0,0,0,0,0,0,0,0,0,0,0,0,0],"id":18,"left_children":[1,-1,3,5,-1,7,9,11,13,-1,-1,15,17,19,21,-1,-1,-1,-1,-1,-1,-1,-1],"loss_changes":[3.9189995E1,0E0,5.327296E1,8.109577E0,0E0,7.457165E0,3.1454468E-1,1.6862755E0,5.1081877E0,0E0,0E0,2.3487909E-1,1.2515106E0,3.6603541E0,9.561152E0,0E0,0E0,0E0,0E0,0E0,0E0,0E0,0E0],"parents":[2147483647,0,0,2,2,3,3,5,5,6,6,7,7,8,8,11,11,12,12,13,13,14,14],"right_children":[2,-1,4,6,-1,8,10,12,14,-1,-1,16,18,20,22,-1,-1,-1,-1,-1,-1,-1,-1],"split_conditions":[-1.1719481E0,-2.887569E-1,1.0432655E0,-1.1208309E-1,-2.903659E-1,-4.7799397E-1,-1.5949486E-1,-1.7190708E0,-7.5034076E-1,2.9022613E-1,5.2407432E-2,4.161482E-1,5.9537375E-1,-1.7190708E0,1.05165936E-1,4.9774896E-2,-8.68993E-2,2.638619E-1,1.229488E-1,-4.5483932E-2,2.6985094E-1,-2.3260397E-1,1.0938481E-1],"split_indices":[7,0,0,32,0,33,1,0,0,0,0,21,22,0,0,0,0,0,0,0,0,0,0],"split_type":[0,0,0,0,0,0,0,0,0,0,0,0,0,0,0,0,0,0,0,0,0,0,0],"sum_hessian":[1.7273589E2,3.2594654E1,1.4014124E2,1.11971695E2,2.816954E1,7.770341E1,3.4268284E1,3.6714684E1,4.0988728E1,3.3260895E1,1.0073906E0,2.6034846E0,3.4111202E1,1.3375551E1,2.7613174E1,1.3848354E0,1.2186493E0,2.287102E1,1.1240181E1,4.632657E0,8.742893E0,1.30081625E1,1.4605012E1],"tree_param":{"num_deleted":"0","num_feature":"40","num_nodes":"23","size_leaf_vector":"1"}},{"base_weights":[6.460758E-3,-2.832103E-1,2.1706508E-1,5.7493097E-1,-6.9825506E-1,3.4376344E-1,2.9064783E-1,-1.5513498E-1,-2.8690296E-1,7.4279225E-1,-5.620612E-1,-3.531824E-1,4.0850657E-1,-1.3740547E-1,2.88025E-1,-2.710902E-1,-9.1448925E-2,1.5502891E-1,-6.475028E-1,1.9691244E-1,-1.8801395E-2,1.063012E-2,-1.8189354E-1,-1.5914977E-1,4.124719E-2,-1.7662235E-1,2.0525402E-1,-9.0569615E-2,-3.420023E-1],"categories":[],"categories_nodes":[],"categories_segments":[],"categories_sizes":[],"default_left":[0,0,0,0,0,0,0,0,0,0,0,0,0,0,0,0,0,0,0,0,0,0,0,0,0,0,0,0,0],"id":19,"left_children":[1,-1,3,5,7,9,-1,11,-1,13,15,17,19,21,-1,-1,23,25,27,-1,-1,-1,-1,-1,-1,-1,-1,-1,-1],"loss_changes":[2.8217358E1,0E0,3.8191635E1,7.269106E0,4.4603977E0,1.9994404E1,0E0,1.4597847E0,0E0,7.405487E0,2.67134E0,1.4850036E0,4.5315367E-1,7.0261484E-1,0E0,0E0,9.090034E-1,2.056457E0,6.86501E-1,0E0,0E0,0E0,0E0,0E0,0E0,0E0,0E0,0E0,0E0],"parents":[2147483647,0,0,2,2,3,3,4,4,5,5,7,7,9,9,10,10,11,11,12,12,13,13,16,16,17,17,18,18],"right_children":[2,-1,4,6,8,10,-1,12,-1,14,16,18,20,22,-1,-1,24,26,28,-1,-1,-1,-1,-1,-1,-1,-1,-1,-1],"split_conditions":[-1.1719481E0,-2.832103E-1,1.0299698E0,1.05165936E-1,1.0432655E0,-7.367927E-1,2.9064783E-1,1.0961914E0,-2.8690296E-1,-1.7190708E0,9.128126E-2,-1.1229957E-1,7.120772E-1,-4.0594694E-1,2.88025E-1,-2.710902E-1,5.733643E-3,-4.594414E-2,-3.58822E-1,1.9691244E-1,-1.8801395E-2,1.063012E-2,-1.8189354E-1,-1.5914977E-1,4.124719E-2,-1.7662235E-1,2.0525402E-1,-9.0569615E-2,-3.420023E-1],"split_indices":[7,0,0,0,0,0,0,18,0,0,0,13,21,37,0,0,23,4,9,0,0,0,0,0,0,0,0,0,0],"split_type":[0,0,0,0,0,0,0,0,0,0,0,0,0,0,0,0,0,0,0,0,0,0,0,0,0,0,0,0,0],"sum_hessian":[1.389374E2,2.4569288E1,1.14368095E2,8.2488976E1,3.1879122E1,5.316213E1,2.9326849E1,1.0784771E1,2.1094353E1,3.7029903E1,1.6132223E1,8.256919E0,2.5278518E0,7.4043145E0,2.962559E1,8.814495E0,7.317728E0,3.201707E0,5.055212E0,1.3988963E0,1.1289554E0,6.0855937E0,1.3187208E0,2.0565546E0,5.2611737E0,1.2841303E0,1.9175764E0,3.9184883E0,1.1367238E0],"tree_param":{"num_deleted":"0","num_feature":"40","num_nodes":"29","size_leaf_vector":"1"}},{"base_weights":[1.1367528E-3,-2.7531397E-1,1.968161E-1,5.3433913E-1,-6.4373165E-1,3.0398652E-1,2.873279E-1,-1.3210087E-1,-2.8254777E-1,6.845573E-1,-4.9993247E-1,-2.744025E-1,1.7344655E-1,-1.20809495E-1,9.390286E-1,-2.624728E-1,-8.173959E-2,-4.78443E-1,3.222392E-1,-1.1884832E-1,4.1988764E-2,2.897784E-1,8.536126E-2,3.0227954E-2,-1.7399588E-1,2.1266894E-2,-2.276797E-1,1.7223193E-1,-2.5557995E-2],"categories":[],"categories_nodes":[],"categories_segments":[],"categories_sizes":[],"default_left":[0,0,0,0,0,0,0,0,0,0,0,0,0,0,0,0,0,0,0,0,0,0,0,0,0,0,0,0,0],"id":20,"left_children":[1,-1,3,5,7,9,-1,11,-1,13,15,17,-1,19,21,-1,23,25,27,-1,-1,-1,-1,-1,-1,-1,-1,-1,-1],"loss_changes":[2.0147415E1,0E0,2.6551504E1,6.190748E0,3.9812384E0,1.3958733E1,0E0,1.2778499E0,0E0,6.390521E0,2.2614605E0,1.3597949E0,0E0,6.471142E-1,1.3691902E-1,0E0,7.98288E-1,1.2528791E0,3.6920834E-1,0E0,0E0,0E0,0E0,0E0,0E0,0E0,0E0,0E0,0E0],"parents":[2147483647,0,0,2,2,3,3,4,4,5,5,7,7,9,9,10,10,11,11,13,13,14,14,16,16,17,17,18,18],"right_children":[2,-1,4,6,8,10,-1,12,-1,14,16,18,-1,20,22,-1,24,26,28,-1,-1,-1,-1,-1,-1,-1,-1,-1,-1],"split_conditions":[-1.1719481E0,-2.7531397E-1,1.0299698E0,1.05165936E-1,1.0432655E0,-7.367927E-1,2.873279E-1,-5.7248563E-2,-2.8254777E-1,-1.7190708E0,9.128126E-2,1.0961914E0,1.7344655E-1,-2.6252928E-1,8.701395E-1,-2.624728E-1,-3.0278778E-1,-1.1229957E-1,-6.335495E-2,-1.1884832E-1,4.1988764E-2,2.897784E-1,8.536126E-2,3.0227954E-2,-1.7399588E-1,2.1266894E-2,-2.276797E-1,1.7223193E-1,-2.5557995E-2],"split_indices":[7,0,0,0,0,0,0,2,0,0,0,18,0,10,22,0,33,13,1,0,0,0,0,0,0,0,0,0,0],"split_type":[0,0,0,0,0,0,0,0,0,0,0,0,0,0,0,0,0,0,0,0,0,0,0,0,0,0,0,0,0],"sum_hessian":[1.1005004E2,1.8673792E1,9.137625E1,6.5456436E1,2.591982E1,4.350592E1,2.1950514E1,1.0073475E1,1.5846346E1,2.962845E1,1.3877469E1,8.903327E0,1.1701475E0,7.240023E0,2.2388426E1,6.740981E0,7.1364875E0,6.782085E0,2.1212418E0,3.2690344E0,3.9709888E0,2.1047535E1,1.3408906E0,5.807184E0,1.3293034E0,2.5450063E0,4.2370787E0,1.0580758E0,1.0631661E0],"tree_param":{"num_deleted":"0","num_feature":"40","num_nodes":"29","size_leaf_vector":"1"}},{"base_weights":[-1.5632901E-6,-1.9183934E-1,8.4996694E-1,-2.8013185E-1,-5.9463982E-3,2.7627885E-1,-3.816423E-2,2.3573588E-1,-2.767147E-1,1.2766548E-1,2.6652956E-1,2.2321185E-1,-2.070908E-1,-5.827029E-2,1.1613029E-1],"categories":[],"categories_nodes":[],"categories_segments":[],"categories_sizes":[],"default_left":[0,0,0,0,0,0,0,0,0,0,0,0,0,0,0],"id":21,"left_children":[1,3,5,-1,7,-1,-1,9,-1,11,-1,13,-1,-1,-1],"loss_changes":[1.47626705E1,1.0182039E1,1.2732105E0,0E0,1.3522789E1,0E0,0E0,3.295855E0,0E0,3.486173E0,0E0,2.7386723E0,0E0,0E0,0E0],"parents":[2147483647,0,0,1,1,2,2,4,4,7,7,9,9,11,11],"right_children":[2,4,6,-1,8,-1,-1,10,-1,12,-1,14,-1,-1,-1],"split_conditions":[-1.1208309E-1,-1.1719481E0,-4.5396484E-2,-2.8013185E-1,1.0432655E0,2.7627885E-1,-3.816423E-2,-7.729415E-2,-2.767147E-1,-3.915155E-2,2.6652956E-1,-4.0546975E-1,-2.070908E-1,-5.827029E-2,1.1613029E-1],"split_indices":[32,7,4,0,0,0,0,5,0,27,0,24,0,0,0],"split_type":[0,0,0,0,0,0,0,0,0,0,0,0,0,0,0],"sum_hessian":[8.853738E1,7.286586E1,1.5671516E1,1.37928505E1,5.9073013E1,1.4664176E1,1.0073407E0,4.7333103E1,1.1739907E1,4.1634975E1,5.6981316E0,3.7931347E1,3.703625E0,1.0641346E1,2.7290003E1],"tree_param":{"num_deleted":"0","num_feature":"40","num_nodes":"15","size_leaf_vector":"1"}},{"base_weights":[-5.2736867E-3,-1.7078361E-1,8.073076E-1,-2.7406114E-1,-1.1428145E-2,2.909321E-2,2.618148E-1,1.8245849E-1,-2.6991007E-1,4.505694E-1,-4.580288E-2,6.527055E-1,8.084799E-2,-5.073046E-1,2.0536348E-1,2.634275E-2,2.1935196E-1,1.1438179E-1,-1.1360374E-1,3.185018E-2,-2.7547628E-1,1.1055078E-1,-1.4330988E-1],"categories":[],"categories_nodes":[],"categories_segments":[],"categories_sizes":[],"default_left":[0,0,0,0,0,0,0,0,0,0,0,0,0,0,0,0,0,0,0,0,0,0,0],"id":22,"left_children":[1,3,5,-1,7,-1,-1,9,-1,11,13,15,17,19,21,-1,-1,-1,-1,-1,-1,-1,-1],"loss_changes":[1.0490992E1,7.6569676E0,5.287075E-1,0E0,9.524352E0,0E0,0E0,2.8017092E0,0E0,1.5158653E0,3.0545614E0,5.3104925E-1,1.3262019E0,2.4316556E0,2.0920982E0,0E0,0E0,0E0,0E0,0E0,0E0,0E0,0E0],"parents":[2147483647,0,0,1,1,2,2,4,4,7,7,9,9,10,10,11,11,12,12,13,13,14,14],"right_children":[2,4,6,-1,8,-1,-1,10,-1,12,14,16,18,20,22,-1,-1,-1,-1,-1,-1,-1,-1],"split_conditions":[-1.1208309E-1,-1.1719481E0,-3.2520685E-1,-2.7406114E-1,1.0432655E0,2.909321E-2,2.618148E-1,-4.7799397E-1,-2.6991007E-1,5.9537375E-1,-4.4486767E-1,-1.7190708E0,-1.0098726E-1,-7.766375E-1,4.762458E-2,2.634275E-2,2.1935196E-1,1.1438179E-1,-1.1360374E-1,3.185018E-2,-2.7547628E-1,1.1055078E-1,-1.4330988E-1],"split_indices":[32,7,9,0,0,0,0,33,0,22,30,0,13,0,33,0,0,0,0,0,0,0,0],"split_type":[0,0,0,0,0,0,0,0,0,0,0,0,0,0,0,0,0,0,0,0,0,0,0],"sum_hessian":[7.5980415E1,6.3779392E1,1.2201025E1,1.0430461E1,5.334893E1,1.2380923E0,1.0962933E1,4.4442814E1,8.9061165E0,1.9989573E1,2.4453241E1,1.242895E1,7.560622E0,8.258674E0,1.6194569E1,1.7743417E0,1.0654609E1,4.674725E0,2.885897E0,3.6105068E0,4.6481667E0,1.3444153E1,2.7504144E0],"tree_param":{"num_deleted":"0","num_feature":"40","num_nodes":"23","size_leaf_vector":"1"}},{"base_weights":[-1.2452302E-2,5.2124375E-1,-2.249264E-1,-1.6764218E-1,2.7590522E-1,-8.99277E-1,6.1688866E-2,3.079845E-2,-1.5743056E-1,-2.7836642E-1,-8.280974E-2,5.593179E-1,-5.4143894E-1,1.4706004E-1,-1.9294406E-1,-1.5314455E-1,2.773226E-1,-1.6394836E-1,-2.6413107E-1,-4.4014907E-1,7.0127554E-2,-4.1232526E-1,2.2635908E-1,-4.1634524E-1,2.3328884E-1,1.7204616E-4,-1.9601469E-1,-2.1570773E-1,3.5269495E-2,1.8740606E-1,-7.8695774E-2,2.5748936E-2,-2.3657165E-1,2.192448E-1,-1.8464367E-1],"categories":[],"categories_nodes":[],"categories_segments":[],"categories_sizes":[],"default_left":[0,0,0,0,0,0,0,0,0,0,0,0,0,0,0,0,0,0,0,0,0,0,0,0,0,0,0,0,0,0,0,0,0,0,0],"id":23,"left_children":[1,3,5,7,-1,9,11,13,-1,-1,-1,15,17,-1,19,21,-1,23,-1,25,-1,27,29,31,33,-1,-1,-1,-1,-1,-1,-1,-1,-1,-1],"loss_changes":[7.6584635E0,5.4347267E0,9.384035E0,5.757064E-1,0E0,1.7089844E-3,1.0749056E1,7.1335596E-1,0E0,0E0,0E0,5.230005E0,1.9342237E0,0E0,6.0560536E-1,8.2964635E-1,0E0,9.908506E-1,0E0,3.165592E-1,0E0,8.6502355E-1,8.80855E-1,1.153664E0,2.182919E0,0E0,0E0,0E0,0E0,0E0,0E0,0E0,0E0,0E0,0E0],"parents":[2147483647,0,0,1,1,2,2,3,3,5,5,6,6,7,7,11,11,12,12,14,14,15,15,17,17,19,19,21,21,22,22,23,23,24,24],"right_children":[2,4,6,8,-1,10,12,14,-1,-1,-1,16,18,-1,20,22,-1,24,-1,26,-1,28,30,32,34,-1,-1,-1,-1,-1,-1,-1,-1,-1,-1],"split_conditions":[-7.5034076E-1,-1.7190708E0,9.128126E-2,1.0299474E-1,2.7590522E-1,1.710975E-2,1.0299698E0,-6.804737E-1,-1.5743056E-1,-2.7836642E-1,-8.280974E-2,1.05165936E-1,1.0432655E0,1.4706004E-1,-4.1026658E-1,-9.124883E-2,2.773226E-1,-2.6215017E-1,-2.6413107E-1,-4.2945394E-1,7.0127554E-2,-2.2962607E-1,-2.6703833E-3,-3.5882956E-1,1.6682488E0,1.7204616E-4,-1.9601469E-1,-2.1570773E-1,3.5269495E-2,1.8740606E-1,-7.8695774E-2,2.5748936E-2,-2.3657165E-1,2.192448E-1,-1.8464367E-1],"split_indices":[0,0,0,24,0,14,0,28,0,0,0,0,0,0,24,3,0,10,0,24,0,28,15,9,26,0,0,0,0,0,0,0,0,0,0],"split_type":[0,0,0,0,0,0,0,0,0,0,0,0,0,0,0,0,0,0,0,0,0,0,0,0,0,0,0,0,0,0,0,0,0,0,0],"sum_hessian":[6.550308E1,1.8238384E1,4.7264698E1,6.8955426E0,1.1342842E1,1.3459502E1,3.3805195E1,5.0199313E0,1.8756115E0,1.2401395E1,1.0581073E0,1.8562376E1,1.5242819E1,1.2540756E0,3.7658556E0,6.4858956E0,1.2076481E1,7.9139166E0,7.328902E0,2.3644989E0,1.4013567E0,3.8025033E0,2.6833925E0,4.8097754E0,3.1041412E0,1.0961741E0,1.2683247E0,2.182398E0,1.6201054E0,1.3250272E0,1.3583652E0,2.3750234E0,2.4347522E0,2.044609E0,1.0595322E0],"tree_param":{"num_deleted":"0","num_feature":"40","num_nodes":"35","size_leaf_vector":"1"}},{"base_weights":[-1.6165053E-2,-1.5064831E-1,7.124689E-1,-2.5761878E-1,-2.5941921E-2,7.171356E-2,2.3651241E-1,1.15549654E-1,-2.5190708E-1,-1.6663885E-2,5.6528777E-1,1.57524E-1,-5.408989E-1,-1.9114E-2,2.098094E-1,-1.2289756E-2,1.857875E-1,-3.5053253E-2,-2.2171177E-1],"categories":[],"categories_nodes":[],"categories_segments":[],"categories_sizes":[],"default_left":[0,0,0,0,0,0,0,0,0,0,0,0,0,0,0,0,0,0,0],"id":24,"left_children":[1,3,5,-1,7,-1,-1,9,-1,11,13,15,17,-1,-1,-1,-1,-1,-1],"loss_changes":[5.495819E0,4.1498256E0,1.2571669E-1,0E0,4.84119E0,0E0,0E0,2.1488314E0,0E0,2.71298E0,7.363448E-1,2.076119E0,5.356276E-1,0E0,0E0,0E0,0E0,0E0,0E0],"parents":[2147483647,0,0,1,1,2,2,4,4,7,7,9,9,10,10,11,11,12,12],"right_children":[2,4,6,-1,8,-1,-1,10,-1,12,14,16,18,-1,-1,-1,-1,-1,-1],"split_conditions":[-1.1208309E-1,-1.1719481E0,-1.1072153E-1,-2.5761878E-1,1.0432655E0,7.171356E-2,2.3651241E-1,-5.7248563E-2,-2.5190708E-1,1.0299474E-1,-4.120169E-2,-2.6636153E-1,-2.0817623E-1,-1.9114E-2,2.098094E-1,-1.2289756E-2,1.857875E-1,-3.5053253E-2,-2.2171177E-1],"split_indices":[32,7,31,0,0,0,0,2,0,24,4,24,22,0,0,0,0,0,0],"split_type":[0,0,0,0,0,0,0,0,0,0,0,0,0,0,0,0,0,0,0],"sum_hessian":[5.3990696E1,4.6247993E1,7.7427015E0,6.044037E0,4.0203957E1,1.6432151E0,6.0994864E0,3.49798E1,5.224156E0,2.7776918E1,7.2028823E0,2.1374361E1,6.402556E0,1.357795E0,5.845087E0,1.5586026E1,5.788336E0,2.5451648E0,3.8573914E0],"tree_param":{"num_deleted":"0","num_feature":"40","num_nodes":"19","size_leaf_vector":"1"}},{"base_weights":[-1.6208388E-2,4.221645E-1,-1.9416808E-1,-1.6548438E-1,2.6425022E-1,-2.5641078E-1,6.538263E-2,-3.758737E-1,1.2902953E-1,4.81178E-1,-4.4160962E-1,1.9276999E-2,-1.6775364E-1,1.108598E-1,-5.6617845E-2,-1.3436708E-1,2.6760766E-1,-1.3566409E-1,-2.4492715E-1,-1.6114214E-1,9.034147E-2,9.135505E-2,-1.5385167E-1,1.5784027E-1,-8.211842E-2,1.4847846E-1,-8.532207E-2],"categories":[],"categories_nodes":[],"categories_segments":[],"categories_sizes":[],"default_left":[0,0,0,0,0,0,0,0,0,0,0,0,0,0,0,0,0,0,0,0,0,0,0,0,0,0,0],"id":25,"left_children":[1,3,5,7,-1,-1,9,11,13,15,17,-1,-1,-1,-1,19,-1,21,-1,-1,23,25,-1,-1,-1,-1,-1],"loss_changes":[3.9417725E0,4.0812387E0,6.2064896E0,4.972543E-1,0E0,0E0,5.8376784E0,3.9737535E-1,3.5725886E-1,3.9485102E0,1.327812E0,0E0,0E0,0E0,0E0,6.7565423E-1,0E0,7.409637E-1,0E0,0E0,9.855008E-1,1.0368874E0,0E0,0E0,0E0,0E0,0E0],"parents":[2147483647,0,0,1,1,2,2,3,3,6,6,7,7,8,8,9,9,10,10,15,15,17,17,20,20,21,21],"right_children":[2,4,6,8,-1,-1,10,12,14,16,18,-1,-1,-1,-1,20,-1,22,-1,-1,24,26,-1,-1,-1,-1,-1],"split_conditions":[-7.5034076E-1,-1.7190708E0,9.128126E-2,2.0405081E-1,2.6425022E-1,-2.5641078E-1,1.0299698E0,-4.558292E-2,-5.0013465E-1,1.05165936E-1,1.0432655E0,1.9276999E-2,-1.6775364E-1,1.108598E-1,-5.6617845E-2,5.733643E-3,2.6760766E-1,-3.9039087E-1,-2.4492715E-1,-1.6114214E-1,-3.1805646E-2,-3.588398E-1,-1.5385167E-1,1.5784027E-1,-8.211842E-2,1.4847846E-1,-8.532207E-2],"split_indices":[0,0,0,19,0,0,0,4,28,0,0,0,0,0,0,23,0,33,0,0,14,9,0,0,0,0,0],"split_type":[0,0,0,0,0,0,0,0,0,0,0,0,0,0,0,0,0,0,0,0,0,0,0,0,0,0,0],"sum_hessian":[4.847658E1,1.3600892E1,3.487569E1,6.242363E0,7.3585286E0,9.191386E0,2.5684303E1,3.4800785E0,2.7622845E0,1.4139285E1,1.1545017E1,1.2141826E0,2.2658958E0,1.4795192E0,1.2827653E0,5.929086E0,8.210198E0,7.1063466E0,4.438671E0,1.6253608E0,4.3037257E0,4.909276E0,2.1970706E0,1.7562908E0,2.5474348E0,2.2141347E0,2.6951413E0],"tree_param":{"num_deleted":"0","num_feature":"40","num_nodes":"27","size_leaf_vector":"1"}},{"base_weights":[-1.6603451E-2,7.1637556E-2,-2.3302561E-1,-2.180942E-1,1.7890953E-1,-8.8181725E-4,4.9007496E-1,4.118385E-1,-2.0271693E-1,-1.5237422E-1,6.4850736E-1,6.0017383E-1,-4.587255E-2,1.4498965E-1,-4.3051237E-1,7.5040025E-1,1.1371048E-2,2.0505555E-1,4.4977285E-2,-9.9123426E-2,7.054533E-2,1.4251113E-1,-4.489327E-2,7.783863E-2,-1.6642316E-1,2.3935346E-1,8.0108635E-2],"categories":[],"categories_nodes":[],"categories_segments":[],"categories_sizes":[],"default_left":[0,0,0,0,0,0,0,0,0,0,0,0,0,0,0,0,0,0,0,0,0,0,0,0,0,0,0],"id":26,"left_children":[1,3,-1,-1,5,7,9,11,13,-1,15,17,19,21,23,25,-1,-1,-1,-1,-1,-1,-1,-1,-1,-1,-1],"loss_changes":[2.8871014E0,3.4486828E0,0E0,0E0,1.955866E0,2.0120096E0,2.3535202E0,7.1140337E-1,1.346972E0,0E0,6.8624115E-1,1.111052E-1,3.3690965E-1,7.680698E-1,1.0054241E0,1.1496544E-2,0E0,0E0,0E0,0E0,0E0,0E0,0E0,0E0,0E0,0E0,0E0],"parents":[2147483647,0,0,1,1,4,4,5,5,6,6,7,7,8,8,10,10,11,11,12,12,13,13,14,14,15,15],"right_children":[2,4,-1,-1,6,8,10,12,14,-1,16,18,20,22,24,26,-1,-1,-1,-1,-1,-1,-1,-1,-1,-1,-1],"split_conditions":[1.0432655E0,-1.1719481E0,-2.3302561E-1,-2.180942E-1,-3.7443864E-1,-6.804737E-1,-4.4864127E-1,1.6682488E0,-4.7799397E-1,-1.5237422E-1,1.0299474E-1,5.718096E-2,6.3475907E-1,1.0454176E-1,-4.1986027E-1,-4.20523E-2,1.1371048E-2,2.0505555E-1,4.4977285E-2,-9.9123426E-2,7.054533E-2,1.4251113E-1,-4.489327E-2,7.783863E-2,-1.6642316E-1,2.3935346E-1,8.0108635E-2],"split_indices":[0,7,0,0,38,28,24,26,33,0,24,6,19,18,24,4,0,0,0,0,0,0,0,0,0,0,0],"split_type":[0,0,0,0,0,0,0,0,0,0,0,0,0,0,0,0,0,0,0,0,0,0,0,0,0,0,0],"sum_hessian":[4.121249E1,3.773753E1,3.4749608E0,3.7846425E0,3.395289E1,2.2151133E1,1.1801755E1,6.9332604E0,1.5217873E1,1.3146579E0,1.0487097E1,4.691563E0,2.2416975E0,6.1674285E0,9.050444E0,8.791149E0,1.6959475E0,3.5216E0,1.1699632E0,1.0265572E0,1.2151403E0,2.6201046E0,3.5473242E0,1.2148271E0,7.8356166E0,7.4129586E0,1.3781908E0],"tree_param":{"num_deleted":"0","num_feature":"40","num_nodes":"27","size_leaf_vector":"1"}},{"base_weights":[-1.3860601E-2,3.5899994E-1,-1.7045636E-1,-1.2747195E-1,2.5028074E-1,-2.3873134E-1,5.768793E-2,-3.691008E-1,1.11486316E-1,3.9102918E-1,-3.520813E-1,1.2254951E-2,-1.811415E-1,1.6870278E-1,-6.514618E-2,-1.433567E-1,2.5520098E-1,-1.0671957E-1,-2.2011183E-1,-3.6065158E-1,1.6857998E-1,-2.7971166E-1,7.68956E-2,-1.771173E-1,1.6494779E-2,-3.9472546E-2,1.2425967E-1,5.36057E-2,-1.7098768E-1],"categories":[],"categories_nodes":[],"categories_segments":[],"categories_sizes":[],"default_left":[0,0,0,0,0,0,0,0,0,0,0,0,0,0,0,0,0,0,0,0,0,0,0,0,0,0,0,0,0],"id":27,"left_children":[1,3,5,7,-1,-1,9,11,13,15,17,-1,-1,-1,-1,19,-1,21,-1,23,25,27,-1,-1,-1,-1,-1,-1,-1],"loss_changes":[2.295705E0,2.7977796E0,3.987501E0,4.233894E-1,0E0,0E0,3.0301166E0,3.6369967E-1,7.2908634E-1,3.1064348E0,8.6040866E-1,0E0,0E0,0E0,0E0,4.9963665E-1,0E0,5.284047E-1,0E0,4.2725873E-1,3.0071282E-1,8.207562E-1,0E0,0E0,0E0,0E0,0E0,0E0,0E0],"parents":[2147483647,0,0,1,1,2,2,3,3,6,6,7,7,8,8,9,9,10,10,15,15,17,17,19,19,20,20,21,21],"right_children":[2,4,6,8,-1,-1,10,12,14,16,18,-1,-1,-1,-1,20,-1,22,-1,24,26,28,-1,-1,-1,-1,-1,-1,-1],"split_conditions":[-7.5034076E-1,-1.7190708E0,9.128126E-2,-2.6252928E-1,2.5028074E-1,-2.3873134E-1,1.0299698E0,-6.441902E-1,4.9475712E-1,1.05165936E-1,1.0432655E0,1.2254951E-2,-1.811415E-1,1.6870278E-1,-6.514618E-2,-9.124883E-2,2.5520098E-1,-3.7443864E-1,-2.2011183E-1,-2.2962607E-1,-5.543864E-1,-3.5884246E-1,7.68956E-2,-1.771173E-1,1.6494779E-2,-3.9472546E-2,1.2425967E-1,5.36057E-2,-1.7098768E-1],"split_indices":[0,0,0,10,0,0,0,38,22,0,0,0,0,0,0,3,0,38,0,28,6,9,0,0,0,0,0,0,0],"split_type":[0,0,0,0,0,0,0,0,0,0,0,0,0,0,0,0,0,0,0,0,0,0,0,0,0,0,0,0,0],"sum_hessian":[3.72698E1,1.0640894E1,2.6628904E1,5.6201053E0,5.0207887E0,6.4532747E0,2.017563E1,2.5236382E0,3.096467E0,1.1150553E1,9.025077E0,1.2195095E0,1.3041288E0,1.0056764E0,2.0907905E0,5.474232E0,5.67632E0,6.2721243E0,2.7529526E0,3.1345427E0,2.3396895E0,4.403384E0,1.8687403E0,1.7479275E0,1.3866153E0,1.2619064E0,1.0777831E0,1.856197E0,2.547187E0],"tree_param":{"num_deleted":"0","num_feature":"40","num_nodes":"29","size_leaf_vector":"1"}},{"base_weights":[-1.2855912E-2,5.698039E-2,-2.0655681E-1,-1.8764594E-1,1.3715981E-1,2.1387751E-1,-4.2551407E-1,8.951792E-2,2.4938096E-1,8.919271E-3,-1.8225837E-1,-3.4261993E-1,2.7745718E-1,-1.6091725E-1,6.491848E-2,2.0430802E-1,-8.602304E-2],"categories":[],"categories_nodes":[],"categories_segments":[],"categories_sizes":[],"default_left":[0,0,0,0,0,0,0,0,0,0,0,0,0,0,0,0,0],"id":28,"left_children":[1,3,-1,-1,5,7,9,11,-1,-1,-1,13,15,-1,-1,-1,-1],"loss_changes":[1.617266E0,1.7948844E0,0E0,0E0,1.3329245E0,1.9205666E0,3.3181375E-1,1.9425483E0,0E0,0E0,0E0,9.1137666E-1,3.9307806E0,0E0,0E0,0E0,0E0],"parents":[2147483647,0,0,1,1,4,4,5,5,6,6,7,7,11,11,12,12],"right_children":[2,4,-1,-1,6,8,10,12,-1,-1,-1,14,16,-1,-1,-1,-1],"split_conditions":[1.0432655E0,-1.1719481E0,-2.0655681E-1,-1.8764594E-1,-3.915155E-2,-2.0554096E-1,-7.5034076E-1,-4.0546975E-1,2.4938096E-1,8.919271E-3,-1.8225837E-1,-2.6220152E-1,-8.8878654E-2,-1.6091725E-1,6.491848E-2,2.0430802E-1,-8.602304E-2],"split_indices":[0,7,0,0,27,25,0,24,0,0,0,10,24,0,0,0,0],"split_type":[0,0,0,0,0,0,0,0,0,0,0,0,0,0,0,0,0],"sum_hessian":[3.2442783E1,3.023354E1,2.209243E0,2.4635284E0,2.7770012E1,2.4983526E1,2.7864847E0,2.1747902E1,3.2356246E0,1.0348412E0,1.7516437E0,6.3421206E0,1.5405782E1,4.73968E0,1.6024404E0,8.860705E0,6.5450773E0],"tree_param":{"num_deleted":"0","num_feature":"40","num_nodes":"17","size_leaf_vector":"1"}},{"base_weights":[-1.773659E-2,2.6173794E-1,-1.7322877E-1,-2.924764E-1,4.839458E-1,-2.597139E-1,1.331735E-1,5.7185283E-3,-1.2561214E-1,5.99169E-1,-5.5283558E-2,-5.141638E-2,-4.1464713E-1,3.578946E-2,2.0481999E-1,-1.412566E-1,1.0803962E-1,-5.5550574E-3,-5.3221893E-1,3.6244437E-1,-1.3307048E-1,7.377194E-2,-6.702347E-2,-2.2702892E-1,-1.8937752E-1,1.005001E-2,1.4914846E-1,8.2966566E-2,-1.6549051E-1],"categories":[],"categories_nodes":[],"categories_segments":[],"categories_sizes":[],"default_left":[0,0,0,0,0,0,0,0,0,0,0,0,0,0,0,0,0,0,0,0,0,0,0,0,0,0,0,0,0],"id":29,"left_children":[1,3,5,7,9,11,-1,-1,-1,13,-1,15,17,-1,-1,-1,19,21,23,25,-1,-1,-1,-1,27,-1,-1,-1,-1],"loss_changes":[1.3682199E0,1.5307561E0,1.1913602E0,1.5945393E-1,7.593924E-1,5.697123E-1,0E0,0E0,0E0,2.1627045E-1,0E0,6.4968145E-1,4.9537075E-1,0E0,0E0,0E0,1.1852518E0,2.3700614E-1,4.7541904E-1,2.291351E-1,0E0,0E0,0E0,0E0,9.1455597E-1,0E0,0E0,0E0,0E0],"parents":[2147483647,0,0,1,1,2,2,3,3,4,4,5,5,9,9,11,11,12,12,16,16,17,17,18,18,19,19,24,24],"right_children":[2,4,6,8,10,12,-1,-1,-1,14,-1,16,18,-1,-1,-1,20,22,24,26,-1,-1,-1,-1,28,-1,-1,-1,-1],"split_conditions":[-4.357874E-2,-4.594414E-2,2.8983894E-1,-5.2298987E-1,-7.327233E-2,-4.7799397E-1,1.331735E-1,5.7185283E-3,-1.2561214E-1,-5.903042E-1,-5.5283558E-2,-1.7025395E-1,-7.5034076E-1,3.578946E-2,2.0481999E-1,-1.412566E-1,-1.01612695E-1,8.252549E-1,-3.4911492E-1,9.128126E-2,-1.3307048E-1,7.377194E-2,-6.702347E-2,-2.2702892E-1,-3.0278778E-1,1.005001E-2,1.4914846E-1,8.2966566E-2,-1.6549051E-1],"split_indices":[4,4,1,37,1,33,0,0,0,28,0,21,0,0,0,0,13,21,31,0,0,0,0,0,33,0,0,0,0],"split_type":[0,0,0,0,0,0,0,0,0,0,0,0,0,0,0,0,0,0,0,0,0,0,0,0,0,0,0,0,0],"sum_hessian":[2.9441738E1,1.028059E1,1.9161148E1,2.8517466E0,7.4288435E0,1.7313961E1,1.8471868E0,1.0671089E0,1.7846377E0,6.4244113E0,1.0044321E0,7.95323E0,9.360732E0,1.3128644E0,5.111547E0,1.6527885E0,6.3004413E0,2.3234649E0,7.037267E0,4.5465E0,1.753941E0,1.0187804E0,1.3046845E0,3.5227282E0,3.5145388E0,1.6837902E0,2.86271E0,1.6407709E0,1.873768E0],"tree_param":{"num_deleted":"0","num_feature":"40","num_nodes":"29","size_leaf_vector":"1"}},{"base_weights":[-2.1514142E-2,2.7641213E-1,-1.5042086E-1,-1.1148472E-1,2.2707239E-1,-2.179092E-1,5.6690443E-2,5.027075E-2,-2.607414E-1,3.2524517E-1,-2.8049967E-1,3.7467953E-2,-1.5220493E-1,-1.2173216E-1,2.3657696E-1,-3.269068E-2,-1.710742E-1,-1.2650245E-1,6.301722E-2,2.3787963E-1,-1.2040988E-1,7.916549E-2,-7.634203E-2,1.2764561E-1,-9.613596E-3],"categories":[],"categories_nodes":[],"categories_segments":[],"categories_sizes":[],"default_left":[0,0,0,0,0,0,0,0,0,0,0,0,0,0,0,0,0,0,0,0,0,0,0,0,0],"id":30,"left_children":[1,3,5,7,-1,-1,9,-1,11,13,15,-1,-1,17,-1,19,-1,-1,21,23,-1,-1,-1,-1,-1],"loss_changes":[1.1298476E0,1.7451215E0,2.477742E0,2.8534383E-1,0E0,0E0,1.5357019E0,0E0,4.6005607E-1,2.0308745E0,5.276976E-1,0E0,0E0,3.3808511E-1,0E0,6.104113E-1,0E0,0E0,3.444879E-1,1.9619243E-1,0E0,0E0,0E0,0E0,0E0],"parents":[2147483647,0,0,1,1,2,2,3,3,6,6,8,8,9,9,10,10,13,13,15,15,18,18,19,19],"right_children":[2,4,6,8,-1,-1,10,-1,12,14,16,-1,-1,18,-1,20,-1,-1,22,24,-1,-1,-1,-1,-1],"split_conditions":[-7.5034076E-1,-1.7190708E0,9.128126E-2,-4.3648653E-2,2.2707239E-1,-2.179092E-1,1.0299698E0,5.027075E-2,4.9475712E-1,1.05165936E-1,-3.9039087E-1,3.7467953E-2,-1.5220493E-1,5.733643E-3,2.3657696E-1,5.8272785E-1,-1.710742E-1,-1.2650245E-1,5.0890218E-3,-3.5883787E-1,-1.2040988E-1,7.916549E-2,-7.634203E-2,1.2764561E-1,-9.613596E-3],"split_indices":[0,0,0,4,0,0,0,0,22,0,33,0,0,23,0,22,0,0,15,9,0,0,0,0,0],"split_type":[0,0,0,0,0,0,0,0,0,0,0,0,0,0,0,0,0,0,0,0,0,0,0,0,0],"sum_hessian":[2.7336885E1,7.9103603E0,1.9426525E1,4.801867E0,3.1084933E0,4.475041E0,1.4951484E1,1.6305884E0,3.1712785E0,8.342518E0,6.608966E0,1.4294804E0,1.7417979E0,4.6215224E0,3.7209957E0,4.1621113E0,2.4468546E0,1.2727627E0,3.34876E0,2.6050458E0,1.5570656E0,2.1545048E0,1.1942552E0,1.1968737E0,1.408172E0],"tree_param":{"num_deleted":"0","num_feature":"40","num_nodes":"25","size_leaf_vector":"1"}},{"base_weights":[-1.9577391E-2,3.9313078E-2,-1.7717966E-1,-1.0721893E-1,3.0927917E-1,2.3049657E-1,-4.3355694E-1,2.2390997E-1,-4.2777054E-2,-9.421078E-2,1.8764329E-1,-2.2774962E-1,-1.10316426E-1,1.0543681E-1,-1.1102582E-1,-3.300142E-1,1.3557482E-1,-2.7866146E-1,4.006126E-2,2.9633513E-1,-8.065374E-2,8.5271355E-3,-1.5919653E-1,1.124083E-1,-6.1078064E-2,-1.3778427E-1,1.9333014E-2,1.3214009E-1,1.3431388E-2],"categories":[],"categories_nodes":[],"categories_segments":[],"categories_sizes":[],"default_left":[0,0,0,0,0,0,0,0,0,0,0,0,0,0,0,0,0,0,0,0,0,0,0,0,0,0,0,0,0],"id":31,"left_children":[1,3,-1,5,7,9,11,-1,13,15,-1,-1,17,19,-1,21,23,25,-1,27,-1,-1,-1,-1,-1,-1,-1,-1,-1],"loss_changes":[8.7920266E-1,9.830653E-1,0E0,1.8971232E0,1.3715246E0,1.1704618E0,8.256446E-1,0E0,3.1881496E-1,3.495596E-1,0E0,0E0,2.632398E-1,4.189243E-1,0E0,2.3569873E-1,3.6484206E-1,2.5153226E-1,0E0,1.1153793E-1,0E0,0E0,0E0,0E0,0E0,0E0,0E0,0E0,0E0],"parents":[2147483647,0,0,1,1,3,3,4,4,5,5,6,6,8,8,9,9,12,12,13,13,15,15,16,16,17,17,19,19],"right_children":[2,4,-1,6,8,10,12,-1,14,16,-1,-1,18,20,-1,22,24,26,-1,28,-1,-1,-1,-1,-1,-1,-1,-1,-1],"split_conditions":[1.0432655E0,1.05165936E-1,-1.7717966E-1,-7.367927E-1,1.0299698E0,-1.7190708E0,9.128126E-2,2.2390997E-1,1.0237706E0,-2.6252928E-1,1.8764329E-1,-2.2774962E-1,-9.124883E-2,-3.9039087E-1,-1.1102582E-1,-6.441902E-1,7.371601E-1,-2.2962607E-1,4.006126E-2,-3.5884687E-1,-8.065374E-2,8.5271355E-3,-1.5919653E-1,1.124083E-1,-6.1078064E-2,-1.3778427E-1,1.9333014E-2,1.3214009E-1,1.3431388E-2],"split_indices":[0,0,0,0,0,0,0,0,21,10,0,0,3,33,0,38,22,28,0,9,0,0,0,0,0,0,0,0,0],"split_type":[0,0,0,0,0,0,0,0,0,0,0,0,0,0,0,0,0,0,0,0,0,0,0,0,0,0,0,0,0],"sum_hessian":[2.4454723E1,2.301255E1,1.4421725E0,1.5307047E1,7.7055044E0,7.6667204E0,7.6403265E0,2.9379451E0,4.7675595E0,4.6255846E0,3.0411358E0,3.1343784E0,4.505948E0,3.748163E0,1.0193963E0,2.0676262E0,2.5579581E0,2.5812428E0,1.9247051E0,2.620081E0,1.1280823E0,1.050062E0,1.0175644E0,1.4388206E0,1.1191376E0,1.4692099E0,1.1120329E0,1.1883236E0,1.4317573E0],"tree_param":{"num_deleted":"0","num_feature":"40","num_nodes":"29","size_leaf_vector":"1"}},{"base_weights":[-2.4400393E-2,2.9342799E-2,-1.6415009E-1,-9.950056E-2,2.6815322E-1,2.1133132E-1,-3.5997573E-1,2.1048655E-1,-3.8524084E-2,-8.868762E-2,2.0184469E-1,-1.8832584E-1,-9.3374155E-2,-2.027815E-1,6.855433E-2,-2.7234393E-1,1.4193481E-1,-1.0237426E-1,5.4349884E-2,-1.2633656E-1,4.007153E-2,-2.543999E-3,-1.2459969E-1,-1.4847389E-2,7.795764E-2,7.846831E-2,-5.6805156E-2],"categories":[],"categories_nodes":[],"categories_segments":[],"categories_sizes":[],"default_left":[0,0,0,0,0,0,0,0,0,0,0,0,0,0,0,0,0,0,0,0,0,0,0,0,0,0,0],"id":32,"left_children":[1,3,-1,5,7,9,11,-1,13,15,-1,-1,17,19,-1,21,23,-1,25,-1,-1,-1,-1,-1,-1,-1,-1],"loss_changes":[6.66179E-1,7.015107E-1,0E0,1.2885392E0,1.0847473E0,1.0922308E0,5.494518E-1,0E0,2.9231328E-1,2.6750416E-1,0E0,0E0,2.1784827E-1,3.5014868E-1,0E0,1.2288749E-1,8.177081E-2,0E0,2.6530316E-1,0E0,0E0,0E0,0E0,0E0,0E0,0E0,0E0],"parents":[2147483647,0,0,1,1,3,3,4,4,5,5,6,6,8,8,9,9,12,12,13,13,15,15,16,16,18,18],"right_children":[2,4,-1,6,8,10,12,-1,14,16,-1,-1,18,20,-1,22,24,-1,26,-1,-1,-1,-1,-1,-1,-1,-1],"split_conditions":[1.0432655E0,1.05165936E-1,-1.6415009E-1,-7.5034076E-1,1.0299698E0,-1.7190708E0,9.128126E-2,2.1048655E-1,-5.543289E-1,1.5764388E-1,2.0184469E-1,-1.8832584E-1,5.733643E-3,-1.6156277E-2,6.855433E-2,-4.3508828E-2,-3.9039087E-1,-1.0237426E-1,8.5179037E-1,-1.2633656E-1,4.007153E-2,-2.543999E-3,-1.2459969E-1,-1.4847389E-2,7.795764E-2,7.846831E-2,-5.6805156E-2],"split_indices":[0,0,0,0,0,0,0,0,6,19,0,0,23,15,0,4,33,0,18,0,0,0,0,0,0,0,0],"split_type":[0,0,0,0,0,0,0,0,0,0,0,0,0,0,0,0,0,0,0,0,0,0,0,0,0,0,0],"sum_hessian":[2.2140072E1,2.0932018E1,1.208053E0,1.3975361E1,6.956658E0,6.457785E0,7.5175757E0,2.348868E0,4.60779E0,4.4030843E0,2.0547006E0,3.0746853E0,4.44289E0,3.0019164E0,1.6058736E0,2.3504188E0,2.0526657E0,1.1698717E0,3.2730184E0,1.6674716E0,1.3344448E0,1.1983488E0,1.1520702E0,1.0036887E0,1.048977E0,1.7293309E0,1.5436875E0],"tree_param":{"num_deleted":"0","num_feature":"40","num_nodes":"27","size_leaf_vector":"1"}},{"base_weights":[-2.2376655E-2,4.4908345E-2,-1.2979953E-1,3.5673255E-1,-5.035787E-2,1.6165088E-1,-2.1801328E-2,-3.1369886E-1,9.353049E-2,-1.7661251E-1,7.4880764E-2,3.3480066E-1,-2.7548724E-1,4.977749E-1,-5.2054945E-2,-1.5218763E-1,3.849753E-2,1.1857106E-2,1.7970505E-1],"categories":[],"categories_nodes":[],"categories_segments":[],"categories_sizes":[],"default_left":[0,0,0,0,0,0,0,0,0,0,0,0,0,0,0,0,0,0,0],"id":33,"left_children":[1,3,-1,5,7,-1,-1,9,11,-1,-1,13,15,17,-1,-1,-1,-1,-1],"loss_changes":[6.102697E-1,5.9108734E-1,0E0,4.0187722E-1,6.225116E-1,0E0,0E0,1.0393851E0,1.0621108E0,0E0,0E0,6.694407E-1,5.195724E-1,2.3557639E-1,0E0,0E0,0E0,0E0,0E0],"parents":[2147483647,0,0,1,1,3,3,4,4,7,7,8,8,11,11,12,12,13,13],"right_children":[2,4,-1,6,8,-1,-1,10,12,-1,-1,14,16,18,-1,-1,-1,-1,-1],"split_conditions":[-3.972948E-2,-6.804737E-1,-1.2979953E-1,3.104222E-2,-4.0546975E-1,1.6165088E-1,-2.1801328E-2,-2.6217723E-1,6.9416896E-2,-1.7661251E-1,7.4880764E-2,-2.6101676E-1,5.4430354E-1,-5.2298987E-1,-5.2054945E-2,-1.5218763E-1,3.849753E-2,1.1857106E-2,1.7970505E-1],"split_indices":[27,28,0,24,24,0,0,10,24,0,0,10,24,37,0,0,0,0,0],"split_type":[0,0,0,0,0,0,0,0,0,0,0,0,0,0,0,0,0,0,0],"sum_hessian":[2.0402372E1,1.8292973E1,2.1094003E0,3.638592E0,1.4654381E1,2.3760827E0,1.2625093E0,4.7609153E0,9.893465E0,3.1687806E0,1.5921346E0,6.038267E0,3.8551981E0,4.588018E0,1.4502494E0,2.2864344E0,1.5687639E0,1.08181E0,3.5062077E0],"tree_param":{"num_deleted":"0","num_feature":"40","num_nodes":"19","size_leaf_vector":"1"}},{"base_weights":[-2.001964E-2,3.1037483E-2,-1.5025264E-1,-9.78666E-2,2.7262822E-1,1.74632E-1,-3.5455793E-1,1.9369851E-1,1.50373895E-2,-7.137999E-2,1.5577857E-1,-2.0248856E-1,-9.2453085E-2,-1.3252307E-1,8.290264E-2,-8.186216E-2,1.1697191E-1,5.142743E-2,-2.0252644E-1,5.754118E-2,-1.0291583E-1,-1.6567394E-2,6.610324E-2,2.503856E-2,-1.2655902E-1],"categories":[],"categories_nodes":[],"categories_segments":[],"categories_sizes":[],"default_left":[0,0,0,0,0,0,0,0,0,0,0,0,0,0,0,0,0,0,0,0,0,0,0,0,0],"id":34,"left_children":[1,3,-1,5,7,9,11,-1,13,15,-1,-1,17,19,-1,-1,21,-1,23,-1,-1,-1,-1,-1,-1],"loss_changes":[5.129199E-1,6.2638205E-1,0E0,9.9172556E-1,6.594722E-1,6.405417E-1,5.4014623E-1,0E0,2.3493947E-1,2.2290401E-1,0E0,0E0,1.8300438E-1,3.363919E-1,0E0,0E0,7.0926204E-2,0E0,2.899417E-1,0E0,0E0,0E0,0E0,0E0,0E0],"parents":[2147483647,0,0,1,1,3,3,4,4,5,5,6,6,8,8,9,9,12,12,13,13,16,16,18,18],"right_children":[2,4,-1,6,8,10,12,-1,14,16,-1,-1,18,20,-1,-1,22,-1,24,-1,-1,-1,-1,-1,-1],"split_conditions":[1.0432655E0,1.05165936E-1,-1.5025264E-1,-7.367927E-1,1.0299698E0,-1.7190708E0,9.128126E-2,1.9369851E-1,-3.7443864E-1,-2.6252928E-1,1.5577857E-1,-2.0248856E-1,-4.3648653E-2,-3.5884246E-1,8.290264E-2,-8.186216E-2,-5.54273E-1,5.142743E-2,-4.7799397E-1,5.754118E-2,-1.0291583E-1,-1.6567394E-2,6.610324E-2,2.503856E-2,-1.2655902E-1],"split_indices":[0,0,0,0,0,0,0,0,38,10,0,0,4,9,0,0,38,0,33,0,0,0,0,0,0],"split_type":[0,0,0,0,0,0,0,0,0,0,0,0,0,0,0,0,0,0,0,0,0,0,0,0,0],"sum_hessian":[1.9260162E1,1.8256958E1,1.0032034E0,1.2292847E1,5.9641113E0,6.1178913E0,6.1749554E0,1.8207823E0,4.143329E0,4.032322E0,2.0855696E0,2.069718E0,4.1052375E0,2.9629645E0,1.1803645E0,1.7313863E0,2.3009355E0,1.0443231E0,3.0609145E0,1.2012894E0,1.7616752E0,1.0378549E0,1.2630807E0,1.5974793E0,1.4634352E0],"tree_param":{"num_deleted":"0","num_feature":"40","num_nodes":"25","size_leaf_vector":"1"}},{"base_weights":[-1.8065922E-2,4.1683994E-2,-1.096902E-1,-4.3666337E-2,3.9586595E-1,-2.6534063E-1,9.109818E-2,1.59658E-1,1.1309011E-2,-1.3069448E-1,2.9205607E-2,4.1573033E-1,-2.4322948E-1,1.7494676E-1,1.2075997E-1,2.0143155E-2,-3.3448133E-1,-2.0136623E-2,7.167804E-2,-1.4479145E-1,-7.7411584E-3],"categories":[],"categories_nodes":[],"categories_segments":[],"categories_sizes":[],"default_left":[0,0,0,0,0,0,0,0,0,0,0,0,0,0,0,0,0,0,0,0,0],"id":35,"left_children":[1,3,-1,5,7,9,11,-1,-1,-1,-1,13,15,-1,17,-1,19,-1,-1,-1,-1],"loss_changes":[4.0843955E-1,5.328185E-1,0E0,4.6161366E-1,1.4648908E-1,4.0017176E-1,1.1702912E0,0E0,0E0,0E0,0E0,1.9463682E-1,1.7777595E-1,0E0,8.718184E-2,0E0,1.890054E-1,0E0,0E0,0E0,0E0],"parents":[2147483647,0,0,1,1,3,3,4,4,5,5,6,6,11,11,12,12,14,14,16,16],"right_children":[2,4,-1,6,8,10,12,-1,-1,-1,-1,14,16,-1,18,-1,20,-1,-1,-1,-1],"split_conditions":[-3.972948E-2,-8.283978E-2,-1.096902E-1,-4.006729E-1,-1.16581805E-2,-2.6233393E-1,-8.8878654E-2,1.59658E-1,1.1309011E-2,-1.3069448E-1,2.9205607E-2,-2.6317137E-1,-3.588017E-1,1.7494676E-1,-2.7318317E-2,2.0143155E-2,5.4430354E-1,-2.0136623E-2,7.167804E-2,-1.4479145E-1,-7.7411584E-3],"split_indices":[27,5,0,24,11,10,24,0,0,0,0,10,9,0,14,0,24,0,0,0,0],"split_type":[0,0,0,0,0,0,0,0,0,0,0,0,0,0,0,0,0,0,0,0,0],"sum_hessian":[1.7933662E1,1.6053925E1,1.8797374E0,1.3642971E1,2.4109542E0,4.791881E0,8.85109E0,1.3943586E0,1.0165956E0,3.1238718E0,1.6680094E0,4.3671274E0,4.4839625E0,2.1626227E0,2.2045047E0,1.0788115E0,3.405151E0,1.0179553E0,1.1865495E0,1.9200238E0,1.4851271E0],"tree_param":{"num_deleted":"0","num_feature":"40","num_nodes":"21","size_leaf_vector":"1"}},{"base_weights":[-9.772954E-3,1.7446864E-1,-1.0761259E-1,-2.3330351E-2,1.683397E-1,-1.9481912E-1,1.1648245E-1,-1.01682134E-1,3.2010216E-1,-2.7064583E-1,8.300245E-2,2.2078183E-2,1.210356E-1,-3.415085E-1,3.7295487E-2,8.51351E-2,-4.884055E-2,-4.2799327E-1,-8.806252E-2,-1.7496622E-1,-5.4884806E-2,7.812644E-2,-1.0766708E-1],"categories":[],"categories_nodes":[],"categories_segments":[],"categories_sizes":[],"default_left":[0,0,0,0,0,0,0,0,0,0,0,0,0,0,0,0,0,0,0,0,0,0,0],"id":36,"left_children":[1,3,5,7,-1,9,-1,-1,11,13,15,-1,-1,17,-1,-1,-1,19,21,-1,-1,-1,-1],"loss_changes":[3.4593296E-1,5.237208E-1,6.150162E-1,6.913189E-1,0E0,2.5994688E-1,0E0,0E0,3.378287E-2,2.9688847E-1,2.0326085E-1,0E0,0E0,1.3710886E-1,0E0,0E0,0E0,1.0960877E-1,4.0377852E-1,0E0,0E0,0E0,0E0],"parents":[2147483647,0,0,1,1,2,2,3,3,5,5,8,8,9,9,10,10,13,13,17,17,18,18],"right_children":[2,4,6,8,-1,10,-1,-1,12,14,16,-1,-1,18,-1,-1,-1,20,22,-1,-1,-1,-1],"split_conditions":[-4.357874E-2,1.3395989E0,2.8983894E-1,-4.0546975E-1,1.683397E-1,-4.978117E-2,1.1648245E-1,-1.01682134E-1,-2.88904E-1,-2.5929075E-1,-5.939137E-2,2.2078183E-2,1.210356E-1,1.05165936E-1,3.7295487E-2,8.51351E-2,-4.884055E-2,-5.2298987E-1,-1.00998886E-1,-1.7496622E-1,-5.4884806E-2,7.812644E-2,-1.0766708E-1],"split_indices":[4,8,1,24,0,2,0,0,37,10,12,0,0,0,0,0,0,37,16,0,0,0,0],"split_type":[0,0,0,0,0,0,0,0,0,0,0,0,0,0,0,0,0,0,0,0,0,0,0],"sum_hessian":[1.7149094E1,5.6764927E0,1.1472601E1,4.377058E0,1.299435E0,1.0273108E1,1.1994935E0,2.287737E0,2.089321E0,8.090713E0,2.182395E0,1.0037297E0,1.0855913E0,6.9746885E0,1.1160239E0,1.116164E0,1.0662311E0,4.6867175E0,2.2879708E0,2.024314E0,2.6624038E0,1.0173427E0,1.270628E0],"tree_param":{"num_deleted":"0","num_feature":"40","num_nodes":"23","size_leaf_vector":"1"}},{"base_weights":[7.76376E-4,2.4085107E-1,-8.3909184E-2,3.5611597E-1,-2.4883175E-2,-2.0951915E-1,1.0562116E-1,1.5211535E-1,-5.8297506E-3,6.399148E-2,-4.021363E-1,1.6112055E-1,-1.0473489E-1,-6.801384E-2,2.4140637E-1,-1.5401423E-1,6.7673605E-3,9.801673E-2,-1.1133271E-1,1.164748E-1,-8.579388E-3,9.271206E-2,-5.0934173E-2],"categories":[],"categories_nodes":[],"categories_segments":[],"categories_sizes":[],"default_left":[0,0,0,0,0,0,0,0,0,0,0,0,0,0,0,0,0,0,0,0,0,0,0],"id":37,"left_children":[1,3,5,7,-1,9,11,-1,-1,13,15,-1,17,-1,19,-1,-1,21,-1,-1,-1,-1,-1],"loss_changes":[3.7420303E-1,2.0863515E-1,3.4621164E-1,2.211588E-1,0E0,4.7470665E-1,6.090314E-1,0E0,0E0,2.808528E-1,2.543187E-1,0E0,3.0270192E-1,0E0,1.3825484E-1,0E0,0E0,2.554068E-1,0E0,0E0,0E0,0E0,0E0],"parents":[2147483647,0,0,1,1,2,2,3,3,5,5,6,6,9,9,10,10,12,12,14,14,17,17],"right_children":[2,4,6,8,-1,10,12,-1,-1,14,16,-1,18,-1,20,-1,-1,22,-1,-1,-1,-1,-1],"split_conditions":[-6.804737E-1,6.4495146E-1,1.05165936E-1,-3.8020637E-2,-2.4883175E-2,-7.5034076E-1,1.0299698E0,1.5211535E-1,-5.8297506E-3,-4.1026658E-1,9.672291E-1,1.6112055E-1,-3.9039087E-1,-6.801384E-2,-1.8481535E-1,-1.5401423E-1,6.7673605E-3,5.2788514E-1,-1.1133271E-1,1.164748E-1,-8.579388E-3,9.271206E-2,-5.0934173E-2],"split_indices":[28,21,0,4,0,0,0,0,0,24,21,0,33,0,24,0,0,23,0,0,0,0,0],"split_type":[0,0,0,0,0,0,0,0,0,0,0,0,0,0,0,0,0,0,0,0,0,0,0],"sum_hessian":[1.641163E1,3.7986867E0,1.2612944E1,2.7278166E0,1.0708702E0,7.5221944E0,5.0907493E0,1.6960161E0,1.0318006E0,3.384328E0,4.1378665E0,1.1594788E0,3.9312704E0,1.1773332E0,2.2069948E0,3.1134927E0,1.0243738E0,2.591088E0,1.3401824E0,1.1458708E0,1.061124E0,1.3630226E0,1.2280654E0],"tree_param":{"num_deleted":"0","num_feature":"40","num_nodes":"23","size_leaf_vector":"1"}},{"base_weights":[6.9947992E-3,7.986315E-2,-2.579585E-1,2.4615724E-1,-3.1785753E-2,-1.2453391E-1,1.9759247E-2,-3.279081E-2,4.086674E-1,1.23520926E-1,-3.1041753E-1,1.6225454E-1,2.5169196E-2,-7.48011E-2,2.4232942E-1,-6.7125726E-3,-1.291427E-1,-1.9281771E-2,4.0069595E-1,1.6196658E-1,2.437583E-2],"categories":[],"categories_nodes":[],"categories_segments":[],"categories_sizes":[],"default_left":[0,0,0,0,0,0,0,0,0,0,0,0,0,0,0,0,0,0,0,0,0],"id":38,"left_children":[1,3,5,7,9,-1,-1,-1,11,13,15,-1,-1,-1,17,-1,-1,-1,19,-1,-1],"loss_changes":[3.4062368E-1,2.633726E-1,2.2132406E-1,3.7065735E-1,4.330232E-1,0E0,0E0,0E0,1.2993354E-1,3.5153934E-1,1.1309624E-1,0E0,0E0,0E0,2.9236284E-1,0E0,0E0,0E0,1.23268425E-1,0E0,0E0],"parents":[2147483647,0,0,1,1,2,2,3,3,4,4,8,8,9,9,10,10,14,14,18,18],"right_children":[2,4,6,8,10,-1,-1,-1,12,14,16,-1,-1,-1,18,-1,-1,-1,20,-1,-1],"split_conditions":[-1.01612695E-1,-4.357874E-2,2.8983894E-1,-4.594414E-2,-3.9039087E-1,-1.2453391E-1,1.9759247E-2,-3.279081E-2,-3.6709508E-1,-1.6871656E-1,-3.2187214E-3,1.6225454E-1,2.5169196E-2,-7.48011E-2,-3.5883325E-1,-6.7125726E-3,-1.291427E-1,-1.9281771E-2,-3.1914875E-2,1.6196658E-1,2.437583E-2],"split_indices":[13,4,1,4,33,0,0,0,24,1,0,0,0,0,9,0,0,0,4,0,0],"split_type":[0,0,0,0,0,0,0,0,0,0,0,0,0,0,0,0,0,0,0,0,0],"sum_hessian":[1.5575702E1,1.27639065E1,2.811796E0,4.6432824E0,8.120624E0,1.703268E0,1.108528E0,1.5595261E0,3.0837562E0,5.5716996E0,2.5489242E0,1.7188565E0,1.3648999E0,1.0808887E0,4.490811E0,1.0988777E0,1.4500465E0,1.7319195E0,2.758891E0,1.4409333E0,1.3179579E0],"tree_param":{"num_deleted":"0","num_feature":"40","num_nodes":"21","size_leaf_vector":"1"}},{"base_weights":[6.217585E-3,6.0219277E-2,-9.010921E-2,-1.2272047E-1,1.6820797E-1,8.5556924E-2,-1.07260354E-1,1.1888206E-2,1.7580289E-1,-7.778037E-2,1.2400671E-1,1.8130745E-1,-1.12794556E-1,8.816008E-2,-8.65578E-3,4.9633387E-2,-2.4213652E-1,-1.8415805E-2,-1.08036004E-1],"categories":[],"categories_nodes":[],"categories_segments":[],"categories_sizes":[],"default_left":[0,0,0,0,0,0,0,0,0,0,0,0,0,0,0,0,0,0,0],"id":39,"left_children":[1,3,-1,5,7,9,-1,11,-1,-1,-1,13,15,-1,-1,-1,17,-1,-1],"loss_changes":[2.8283593E-1,3.0569905E-1,0E0,3.208067E-1,6.1316764E-1,5.538395E-1,0E0,1.8797271E-1,0E0,0E0,0E0,9.708356E-2,2.2665507E-1,0E0,0E0,0E0,6.2032714E-2,0E0,0E0],"parents":[2147483647,0,0,1,1,3,3,4,4,5,5,7,7,11,11,12,12,16,16],"right_children":[2,4,-1,6,8,10,-1,12,-1,-1,-1,14,16,-1,-1,-1,18,-1,-1],"split_conditions":[-3.972948E-2,-3.0611056E-1,-9.010921E-2,-4.5396484E-2,-2.0554096E-1,-4.1026658E-1,-1.07260354E-1,-3.588398E-1,1.7580289E-1,-7.778037E-2,1.2400671E-1,-2.9139584E-1,-7.624337E-2,8.816008E-2,-8.65578E-3,4.9633387E-2,1.0161635E0,-1.8415805E-2,-1.08036004E-1],"split_indices":[27,8,0,4,25,24,0,9,0,0,0,25,15,0,0,0,19,0,0],"split_type":[0,0,0,0,0,0,0,0,0,0,0,0,0,0,0,0,0,0,0],"sum_hessian":[1.4991148E1,1.34292755E1,1.5618722E0,4.9341283E0,8.495148E0,2.95167E0,1.9824584E0,6.9305487E0,1.5645988E0,1.5403631E0,1.4113067E0,2.74563E0,4.184919E0,1.528618E0,1.217012E0,1.2394662E0,2.9454527E0,1.7637236E0,1.1817291E0],"tree_param":{"num_deleted":"0","num_feature":"40","num_nodes":"19","size_leaf_vector":"1"}},{"base_weights":[7.081968E-3,1.9301441E-1,-8.416769E-2,-6.3393996E-3,1.5465605E-1,-1.5783903E-1,6.576487E-2,5.019002E-2,-6.394744E-2,1.8356998E-1,-9.912458E-2,-2.305922E-2,1.8474033E-1,1.2564343E-1,-1.05497256E-1,-3.9285943E-2,1.4819776E-1],"categories":[],"categories_nodes":[],"categories_segments":[],"categories_sizes":[],"default_left":[0,0,0,0,0,0,0,0,0,0,0,0,0,0,0,0,0],"id":40,"left_children":[1,3,5,7,-1,-1,9,-1,-1,11,-1,13,-1,15,-1,-1,-1],"loss_changes":[2.773556E-1,3.485265E-1,7.648263E-1,1.9031729E-1,0E0,0E0,4.861778E-1,0E0,0E0,6.992624E-1,0E0,3.448641E-1,0E0,5.347365E-1,0E0,0E0,0E0],"parents":[2147483647,0,0,1,1,2,2,3,3,6,6,9,9,11,11,13,13],"right_children":[2,4,6,8,-1,-1,10,-1,-1,12,-1,14,-1,16,-1,-1,-1],"split_conditions":[-7.5034076E-1,-1.7190708E0,9.128126E-2,4.9475712E-1,1.5465605E-1,-1.5783903E-1,-3.0278778E-1,5.019002E-2,-6.394744E-2,-3.197956E-1,-9.912458E-2,1.3625897E0,1.8474033E-1,-2.619705E-1,-1.05497256E-1,-3.9285943E-2,1.4819776E-1],"split_indices":[0,0,0,22,0,0,33,0,0,28,0,36,0,10,0,0,0],"split_type":[0,0,0,0,0,0,0,0,0,0,0,0,0,0,0,0,0],"sum_hessian":[1.4389949E1,4.3700986E0,1.0019851E1,3.3065376E0,1.063561E0,1.9025407E0,8.11731E0,1.9013195E0,1.405218E0,6.6704774E0,1.4468325E0,5.153489E0,1.516988E0,3.973138E0,1.1803511E0,2.721673E0,1.2514652E0],"tree_param":{"num_deleted":"0","num_feature":"40","num_nodes":"17","size_leaf_vector":"1"}},{"base_weights":[1.1328121E-2,2.2350149E-1,-7.0975676E-2,1.15682326E-1,2.789977E-3,-1.939973E-1,1.4193115E-1,1.5654545E-2,-3.063516E-1,3.045655E-1,-5.573857E-2,-4.9370598E-2,5.2339494E-2,-8.960098E-3,-1.2717868E-1,1.1166666E-1,2.5283633E-2],"categories":[],"categories_nodes":[],"categories_segments":[],"categories_sizes":[],"default_left":[0,0,0,0,0,0,0,0,0,0,0,0,0,0,0,0,0],"id":41,"left_children":[1,3,5,-1,-1,7,9,11,13,15,-1,-1,-1,-1,-1,-1,-1],"loss_changes":[2.6952952E-1,1.4575826E-1,3.215472E-1,0E0,0E0,1.8232965E-1,3.0647278E-1,1.3120896E-1,1.4844152E-1,2.0976156E-2,0E0,0E0,0E0,0E0,0E0,0E0,0E0],"parents":[2147483647,0,0,1,1,2,2,5,5,6,6,7,7,8,8,9,9],"right_children":[2,4,6,-1,-1,8,10,12,14,16,-1,-1,-1,-1,-1,-1,-1],"split_conditions":[-6.804737E-1,-7.367927E-1,-3.197956E-1,1.15682326E-1,2.789977E-3,-4.7799397E-1,-3.9978515E-2,-2.7115837E-1,-3.588398E-1,1.818731E-1,-5.573857E-2,-4.9370598E-2,5.2339494E-2,-8.960098E-3,-1.2717868E-1,1.1166666E-1,2.5283633E-2],"split_indices":[28,0,28,0,0,33,33,24,9,19,0,0,0,0,0,0,0],"split_type":[0,0,0,0,0,0,0,0,0,0,0,0,0,0,0,0,0],"sum_hessian":[1.3526205E1,3.30097E0,1.0225235E1,1.4234803E0,1.8774898E0,6.5369034E0,3.6883314E0,2.5811586E0,3.9557445E0,2.512282E0,1.1760495E0,1.1920844E0,1.3890742E0,1.554452E0,2.4012926E0,1.3943255E0,1.1179563E0],"tree_param":{"num_deleted":"0","num_feature":"40","num_nodes":"17","size_leaf_vector":"1"}},{"base_weights":[1.2687557E-2,7.405359E-2,-2.0361096E-1,8.460525E-3,9.8213695E-2,-1.0938551E-1,1.374673E-2,2.0198235E-1,-1.3284925E-1,-1.9107135E-2,3.266748E-1,1.8895624E-2,-1.04966335E-1,1.3745011E-1,1.0631507E-2,-7.393647E-2,1.5222283E-1,1.3458465E-1,-3.813119E-2],"categories":[],"categories_nodes":[],"categories_segments":[],"categories_sizes":[],"default_left":[0,0,0,0,0,0,0,0,0,0,0,0,0,0,0,0,0,0,0],"id":42,"left_children":[1,3,5,7,-1,-1,-1,9,11,-1,13,15,-1,-1,-1,-1,17,-1,-1],"loss_changes":[2.0358971E-1,1.9324909E-1,1.5347494E-1,3.1115443E-1,0E0,0E0,0E0,1.7930819E-1,2.2438574E-1,0E0,1.1471236E-1,2.0875837E-1,0E0,0E0,0E0,0E0,3.7491706E-1,0E0,0E0],"parents":[2147483647,0,0,1,1,2,2,3,3,7,7,8,8,10,10,11,11,16,16],"right_children":[2,4,6,8,-1,-1,-1,10,12,-1,14,16,-1,-1,-1,-1,18,-1,-1],"split_conditions":[-1.01612695E-1,-9.200886E-2,-4.1458037E-2,-4.3648653E-2,9.8213695E-2,-1.0938551E-1,1.374673E-2,-4.594414E-2,-3.9039087E-1,-1.9107135E-2,-3.6709508E-1,-8.494905E-2,-1.04966335E-1,1.3745011E-1,1.0631507E-2,-7.393647E-2,-1.1332135E-1,1.3458465E-1,-3.813119E-2],"split_indices":[13,16,4,4,0,0,0,4,33,0,24,23,0,0,0,0,13,0,0],"split_type":[0,0,0,0,0,0,0,0,0,0,0,0,0,0,0,0,0,0,0],"sum_hessian":[1.3202228E1,1.0796722E1,2.405505E0,9.396978E0,1.3997444E0,1.1812379E0,1.224267E0,3.7846258E0,5.6123524E0,1.3651735E0,2.4194524E0,3.840302E0,1.7720506E0,1.2719792E0,1.1474731E0,1.00053E0,2.839772E0,1.0837495E0,1.7560225E0],"tree_param":{"num_deleted":"0","num_feature":"40","num_nodes":"19","size_leaf_vector":"1"}},{"base_weights":[1.3259242E-2,1.6855536E-1,-6.643947E-2,3.034023E-1,-2.3783946E-2,-1.4344516E-1,7.361488E-2,1.36041E-1,1.2902797E-2,1.9793291E-1,-2.0513237E-1,3.2621956E-1,-6.0328685E-2,-1.4601162E-2,-7.7757865E-2,7.920915E-2,1.5700299E-1,6.1763056E-2,-2.522967E-2],"categories":[],"categories_nodes":[],"categories_segments":[],"categories_sizes":[],"default_left":[0,0,0,0,0,0,0,0,0,0,0,0,0,0,0,0,0,0,0],"id":43,"left_children":[1,3,5,7,-1,-1,9,-1,-1,11,13,15,-1,-1,-1,17,-1,-1,-1],"loss_changes":[1.8179652E-1,1.8973024E-1,6.017925E-1,1.1404997E-1,0E0,0E0,3.247093E-1,0E0,0E0,3.818938E-1,1.2927294E-2,2.0477766E-1,0E0,0E0,0E0,8.811785E-2,0E0,0E0,0E0],"parents":[2147483647,0,0,1,1,2,2,3,3,6,6,9,9,10,10,11,11,15,15],"right_children":[2,4,6,8,-1,-1,10,-1,-1,12,14,16,-1,-1,-1,18,-1,-1,-1],"split_conditions":[-7.5034076E-1,4.9475712E-1,9.128126E-2,-1.0189437E-1,-2.3783946E-2,-1.4344516E-1,-3.9039087E-1,1.36041E-1,1.2902797E-2,1.3625897E0,-8.775729E-2,-2.6233393E-1,-6.0328685E-2,-1.4601162E-2,-7.7757865E-2,1.0299698E0,1.5700299E-1,6.1763056E-2,-2.522967E-2],"split_indices":[0,22,0,9,0,0,33,0,0,36,19,10,0,0,0,0,0,0,0],"split_type":[0,0,0,0,0,0,0,0,0,0,0,0,0,0,0,0,0,0,0],"sum_hessian":[1.2783564E1,3.9574354E0,8.826128E0,2.4177368E0,1.5396986E0,1.6275784E0,7.1985497E0,1.0634018E0,1.354335E0,5.1787896E0,2.0197601E0,4.0569544E0,1.1218351E0,1.0066404E0,1.0131197E0,2.4228148E0,1.6341399E0,1.2176754E0,1.2051393E0],"tree_param":{"num_deleted":"0","num_feature":"40","num_nodes":"19","size_leaf_vector":"1"}},{"base_weights":[1.1804052E-2,1.9081502E-1,-6.0174108E-2,8.9342795E-2,-2.0000536E-2,-1.7301214E-1,1.3453417E-1,-2.787871E-1,-1.546147E-2,2.6460382E-1,-4.0681366E-2,-6.5381518E-3,-1.0667613E-1,3.8001105E-2,-5.9261605E-2,9.773349E-2,2.710391E-2],"categories":[],"categories_nodes":[],"categories_segments":[],"categories_sizes":[],"default_left":[0,0,0,0,0,0,0,0,0,0,0,0,0,0,0,0,0],"id":44,"left_children":[1,3,5,-1,-1,7,9,11,13,15,-1,-1,-1,-1,-1,-1,-1],"loss_changes":[1.8248859E-1,1.3131408E-1,2.479473E-1,0E0,0E0,1.1087035E-1,1.8747829E-1,7.270971E-2,1.24268584E-1,5.2239597E-3,0E0,0E0,0E0,0E0,0E0,0E0,0E0],"parents":[2147483647,0,0,1,1,2,2,5,5,6,6,7,7,8,8,9,9],"right_children":[2,4,6,-1,-1,8,10,12,14,16,-1,-1,-1,-1,-1,-1,-1],"split_conditions":[-6.804737E-1,-3.8020637E-2,-3.197956E-1,8.9342795E-2,-2.0000536E-2,-2.6233393E-1,-3.9978515E-2,-5.5440545E-1,-1.1150942E-1,-2.438365E-1,-4.0681366E-2,-6.5381518E-3,-1.0667613E-1,3.8001105E-2,-5.9261605E-2,9.773349E-2,2.710391E-2],"split_indices":[28,4,28,0,0,10,33,6,25,19,0,0,0,0,0,0,0],"split_type":[0,0,0,0,0,0,0,0,0,0,0,0,0,0,0,0,0],"sum_hessian":[1.2271872E1,3.0458288E0,9.226043E0,2.0410705E0,1.0047584E0,5.911575E0,3.3144681E0,3.0765567E0,2.8350184E0,2.25108E0,1.0633882E0,1.0032359E0,2.0733206E0,1.7630574E0,1.0719609E0,1.0225744E0,1.2285056E0],"tree_param":{"num_deleted":"0","num_feature":"40","num_nodes":"17","size_leaf_vector":"1"}},{"base_weights":[9.8322285E-3,6.8562314E-2,-1.8877576E-1,2.059019E-1,-3.0747112E-2,-9.6011065E-2,7.519891E-3,9.683486E-2,-1.5547733E-2,8.380153E-2,-6.8742484E-2,2.1265887E-1,-3.786594E-2,1.10625856E-1,-6.5272218E-3],"categories":[],"categories_nodes":[],"categories_segments":[],"categories_sizes":[],"default_left":[0,0,0,0,0,0,0,0,0,0,0,0,0,0,0],"id":45,"left_children":[1,3,5,7,9,-1,-1,-1,-1,11,-1,13,-1,-1,-1],"loss_changes":[1.6528288E-1,1.5381488E-1,9.916528E-2,1.5733622E-1,1.8159182E-1,0E0,0E0,0E0,0E0,1.6925316E-1,0E0,1.409862E-1,0E0,0E0,0E0],"parents":[2147483647,0,0,1,1,2,2,3,3,4,4,9,9,11,11],"right_children":[2,4,6,8,10,-1,-1,-1,-1,12,-1,14,-1,-1,-1],"split_conditions":[-1.01612695E-1,-7.367927E-1,-4.1458037E-2,4.9475712E-1,-3.9039087E-1,-9.6011065E-2,7.519891E-3,9.683486E-2,-1.5547733E-2,-3.5860738E-1,-6.8742484E-2,-7.327233E-2,-3.786594E-2,1.10625856E-1,-6.5272218E-3],"split_indices":[13,0,4,22,33,0,0,0,0,9,0,1,0,0,0],"split_type":[0,0,0,0,0,0,0,0,0,0,0,0,0,0,0],"sum_hessian":[1.2060402E1,9.813309E0,2.2470937E0,3.6677165E0,6.1455917E0,1.0846853E0,1.1624082E0,2.3496974E0,1.3180192E0,4.2622585E0,1.8833333E0,2.6337676E0,1.6284909E0,1.2370006E0,1.396767E0],"tree_param":{"num_deleted":"0","num_feature":"40","num_nodes":"15","size_leaf_vector":"1"}},{"base_weights":[6.4578224E-3,-7.105754E-2,1.3514589E-1,1.0883117E-1,-2.602444E-1,-4.2272776E-2,8.767079E-2,-5.6761008E-2,1.05349965E-1,-1.5029354E-1,-4.874394E-2,3.5319995E-2,-5.9228513E-2,4.9096927E-2,-5.7023924E-2,-7.043124E-2,3.686749E-2],"categories":[],"categories_nodes":[],"categories_segments":[],"categories_sizes":[],"default_left":[0,0,0,0,0,0,0,0,0,0,0,0,0,0,0,0,0],"id":46,"left_children":[1,3,5,7,9,11,-1,13,-1,-1,15,-1,-1,-1,-1,-1,-1],"loss_changes":[1.3742048E-1,3.2277304E-1,1.562045E-1,2.2619948E-1,2.0530519E-1,1.0510655E-1,0E0,1.4613593E-1,0E0,0E0,1.4090759E-1,0E0,0E0,0E0,0E0,0E0,0E0],"parents":[2147483647,0,0,1,1,2,2,3,3,4,4,5,5,7,7,10,10],"right_children":[2,4,6,8,10,12,-1,14,-1,-1,16,-1,-1,-1,-1,-1,-1],"split_conditions":[1.05165936E-1,-7.367927E-1,-5.543289E-1,-1.7190708E0,9.128126E-2,-3.5885227E-1,8.767079E-2,-4.3648653E-2,1.05349965E-1,-1.5029354E-1,-2.6636153E-1,3.5319995E-2,-5.9228513E-2,4.9096927E-2,-5.7023924E-2,-7.043124E-2,3.686749E-2],"split_indices":[0,0,6,0,0,9,0,4,0,0,24,0,0,0,0,0,0],"split_type":[0,0,0,0,0,0,0,0,0,0,0,0,0,0,0,0,0],"sum_hessian":[1.1813377E1,7.6520123E0,4.161365E0,4.1401167E0,3.5118957E0,2.297478E0,1.8638873E0,2.9144173E0,1.2256993E0,1.0023329E0,2.5095627E0,1.2497993E0,1.0476786E0,1.0126438E0,1.9017736E0,1.0277708E0,1.481792E0],"tree_param":{"num_deleted":"0","num_feature":"40","num_nodes":"17","size_leaf_vector":"1"}},{"base_weights":[2.4147097E-3,-5.900015E-2,1.4885029E-1,7.9285644E-2,-2.1903625E-1,1.0066155E-1,-2.3565276E-2,-1.5898666E-1,3.3654037E-1,3.1387194E-3,-9.798647E-2,8.963422E-3,-9.885391E-2,1.2468241E-1,3.005588E-2],"categories":[],"categories_nodes":[],"categories_segments":[],"categories_sizes":[],"default_left":[0,0,0,0,0,0,0,0,0,0,0,0,0,0,0],"id":47,"left_children":[1,3,5,7,9,-1,-1,11,13,-1,-1,-1,-1,-1,-1],"loss_changes":[1.20766945E-1,2.2736184E-1,1.9460392E-1,4.1053236E-1,1.1858185E-1,0E0,0E0,1.2910572E-1,1.6697496E-2,0E0,0E0,0E0,0E0,0E0,0E0],"parents":[2147483647,0,0,1,1,2,2,3,3,4,4,7,7,8,8],"right_children":[2,4,6,8,10,-1,-1,12,14,-1,-1,-1,-1,-1,-1],"split_conditions":[-3.7443864E-1,4.9475712E-1,-2.151847E-1,-1.6871656E-1,-2.9139584E-1,1.0066155E-1,-2.3565276E-2,-6.441902E-1,2.7351028E-1,3.1387194E-3,-9.798647E-2,8.963422E-3,-9.885391E-2,1.2468241E-1,3.005588E-2],"split_indices":[38,22,33,1,25,0,0,38,21,0,0,0,0,0,0],"split_type":[0,0,0,0,0,0,0,0,0,0,0,0,0,0,0],"sum_hessian":[1.1451992E1,8.488866E0,2.963126E0,4.824572E0,3.664294E0,1.3660845E0,1.5970415E0,2.703005E0,2.121567E0,1.4576402E0,2.2066538E0,1.6738919E0,1.029113E0,1.0214489E0,1.1001183E0],"tree_param":{"num_deleted":"0","num_feature":"40","num_nodes":"15","size_leaf_vector":"1"}},{"base_weights":[5.7183756E-3,1.4099585E-1,-6.591939E-2,2.3539764E-1,-1.930169E-2,-1.2310118E-1,4.96413E-2,1.0175042E-1,6.7843134E-3,2.057328E-1,-1.1195345E-1,1.0440261E-1,7.2347354E-3,-9.407029E-2,3.241077E-2],"categories":[],"categories_nodes":[],"categories_segments":[],"categories_sizes":[],"default_left":[0,0,0,0,0,0,0,0,0,0,0,0,0,0,0],"id":48,"left_children":[1,3,5,7,-1,-1,9,-1,-1,11,13,-1,-1,-1,-1],"loss_changes":[1.2720557E-1,1.02975085E-1,3.640949E-1,6.5607816E-2,0E0,0E0,2.0863998E-1,0E0,0E0,9.743112E-2,2.2295813E-1,0E0,0E0,0E0,0E0],"parents":[2147483647,0,0,1,1,2,2,3,3,6,6,9,9,10,10],"right_children":[2,4,6,8,-1,-1,10,-1,-1,12,14,-1,-1,-1,-1],"split_conditions":[-7.5034076E-1,-1.8481535E-1,9.128126E-2,-4.3485522E-2,-1.930169E-2,-1.2310118E-1,-4.7799397E-1,1.0175042E-1,6.7843134E-3,3.727887E-1,-3.4911492E-1,1.0440261E-1,7.2347354E-3,-9.407029E-2,3.241077E-2],"split_indices":[0,24,0,4,0,0,33,0,0,18,31,0,0,0,0],"split_type":[0,0,0,0,0,0,0,0,0,0,0,0,